#pragma once

// Auto-generated from RSL-RL Actor checkpoint

#define POLICY_IN_DIM 13

#define POLICY_H1_DIM 64

#define POLICY_H2_DIM 64

#define POLICY_OUT_DIM 2


static const float W1[832] = {
    0.467977703f, 0.194762111f, -0.230050415f, 0.300080657f, 0.128333926f, 0.0806051493f, -0.174544603f, -0.102579579f, 0.37184754f, -0.0543680601f, 0.204342991f, -0.117983073f, 0.253883392f, 0.208313078f, -0.0497715436f, 0.131582245f, -0.0195837133f, -0.186387762f, -0.199455395f, 0.0803935081f, -0.00565462839f, 0.243688285f, -0.249781922f, 0.29846105f, -0.0234927163f, -0.491159111f, -0.0213543493f, -0.163407832f, 0.265595138f, -0.627940238f, 0.165031761f, -0.204847246f, 0.347723007f, -0.0833742097f, -0.0606748946f, 0.109183207f, 0.217755809f, 0.0841744244f, -0.0362361372f, 0.181764185f, 0.0280121565f, -0.151606396f, 0.103906341f, -0.0185962953f, 0.140018299f, -0.184070095f, 0.388686448f, 0.377842367f, 0.26616329f, -0.0578666516f, -0.0367628038f, -0.735561192f, -0.700482845f, 0.290426254f, 0.166536197f, 0.181350365f, -0.100553639f, 0.089202486f, 0.142466322f, -0.102140374f, -0.218312562f, 0.119489782f, 0.0289722849f, 0.0875627398f, 0.189736813f, 0.210575536f, 0.29287225f, -0.753926754f, -0.400569946f, -0.0149644911f, -0.00322755473f, -0.0402995162f, 0.100751892f, -0.0313471965f, -0.207488671f, -0.268280685f, -0.211646557f, -0.0921012089f, 0.0543288179f, 0.144831121f, 0.0685836896f, -0.418172002f, -0.0191195812f, -0.0785760507f, 0.064884901f, -0.173509106f, 0.415154159f, -0.523670495f, -0.281270683f, -0.0983649641f, -0.0130381938f, -0.1646723f, -0.101431713f, -0.0387085117f, -0.310024202f, -0.0587326512f, 0.405250609f, -0.316380441f, -0.0227340329f, -0.483629555f, -0.0675683096f, 0.0181536376f, 0.168249652f, -0.401386201f, 0.231933326f, 0.023452064f, -0.627371311f, -0.167114958f, -0.0915042832f, -0.3430489f, 0.0961836055f, 0.280946404f, -0.224423081f, -0.242469549f, -0.451396644f, 0.144620776f, 0.190368757f, -0.31285578f, -0.231605962f, -0.263012826f, 0.123425186f, -0.22337085f, -0.0284100734f, -0.307564229f, 0.109247163f, -0.191021442f, 0.127124265f, -0.328058511f, 0.663449645f, 0.101277433f, 0.422201753f, -0.0593627989f, 0.0998837724f, 0.169426814f, -0.10222818f, -0.321660846f, -0.131360203f, -0.14451763f, -0.0256643891f, -0.12393973f, -0.0352066904f, -0.185684472f, 0.0657704845f, -0.384312868f, -0.231529742f, -0.0218608398f, 0.253850818f, 0.148219958f, 0.130827591f, -0.119032539f, 0.0599792413f, -0.197864458f, 0.589074373f, -0.110207252f, 0.508340538f, -0.315407634f, 0.407661557f, -0.0234676432f, 0.190034077f, -0.189197809f, 0.401337564f, -0.0308245737f, -0.380538583f, -0.385744154f, 0.0653423294f, -0.0796037242f, -0.470621973f, 0.179695994f, 0.0191014558f, -0.389770001f, -0.197675571f, -0.0684457272f, 0.120544657f, -0.0823842883f, 0.112184055f, -0.325077236f, -0.179497689f, 0.122698352f, -0.0917828456f, -0.417733699f, 0.00882788189f, 0.220731795f, 0.111955315f, -0.23993355f, -0.0943505466f, 0.104015656f, 0.411441356f, 0.180547133f, 0.108096138f, 0.0569840595f, -0.0540903024f, 0.0306085534f, 0.420554429f, 0.323844075f, -0.147346318f, -0.0593530051f, -0.280123949f, -0.142766625f, 0.233714566f, -0.110760018f, -0.125044063f, -0.460610479f, 0.16312851f, 0.0951364785f, -0.288759321f, -0.486164898f, -0.339331329f, -0.27724272f, -0.0919953063f, 0.0387176462f, 0.395736396f, -0.0407565311f, -0.251946449f, -0.371242672f, -0.0992930382f, 0.264050126f, -0.157672375f, -0.0931766704f, 0.043991372f, -0.130195722f, -0.403158933f, 0.268640816f, -0.293433279f, -0.20215629f, -0.331829101f, 0.155056074f, 0.371610463f, 0.0775078684f, -0.209823057f, 0.103958234f, -0.364204556f, 0.326837808f, 0.0615459606f, 0.204020888f, 0.137549177f, -0.0890655518f, 0.117970809f, -0.382831335f, -0.195195183f, -0.191406041f, 0.108917966f, -0.0582505465f, -0.126978546f, -0.279878259f, -0.0867054164f, -0.164669052f, -0.363129884f, 0.181295231f, -0.274561316f, -0.00742389681f, -0.0648967773f, -0.327437639f, 0.214097038f, -0.0255613662f, -0.210921288f, -0.133295789f, -0.0737347752f, -0.0589291006f, 0.057632219f, 0.198997989f, 0.170571864f, -0.276898235f, 0.272343814f, -0.0977603719f, 0.0634337142f, 0.30557555f, 0.22051096f, 0.135021448f, 0.127713159f, -0.435574383f, 0.400645584f, -0.414222091f, 0.224567026f, 0.442880958f, 0.379434973f, -0.562051356f, -0.36127457f, 0.0211133379f, 0.0226413663f, -0.427206665f, -0.154682279f, 0.274262249f, -0.11399249f, -0.14293474f, -0.199458718f, -0.158745855f, -0.48266843f, 0.118977278f, 0.345145345f, 0.0395502746f, 0.0119267656f, -0.128101751f, -0.520634174f, -0.214160964f, 0.176811442f, -0.0289648883f, -0.318445891f, -0.000841624511f, -0.0333596207f, -0.239362538f, -0.135714307f, -0.295556635f, -0.324383795f, 0.0253830925f, -0.115535952f, 0.266441137f, 0.154601261f, -0.294595718f, -0.221814036f, 0.0100788428f, 0.401225209f, 0.00883910432f, -0.716430068f, 0.271189749f, -0.0280765854f, 0.0226075631f, -0.0589115545f, 0.258417845f, 0.0692203492f, 0.0110222138f, -0.257341057f, -0.00784327555f, 0.356520593f, 0.146083936f, -0.199795052f, -0.082066834f, -0.27376768f, -0.289391994f, -0.2466681f, -0.341444612f, 0.353830606f, 0.218245119f, 0.245325401f, -0.335669905f, 0.272444397f, -0.239657283f, 0.30965668f, 0.00327682868f, -0.270658791f, -0.0982417017f, 0.124320321f, -0.136614352f, 0.00964091625f, -0.267178565f, -0.326852649f, -0.0677726418f, 0.135270119f, 0.0529652014f, -0.393866301f, 0.328311592f, 0.00433455175f, 0.17472215f, 0.0671048537f, -0.133235261f, -0.509525597f, 0.171017855f, 0.0894452333f, -0.139727354f, -0.538212359f, 0.425413191f, -0.255647749f, -0.130318969f, -0.639773548f, -0.176038712f, 0.211830691f, 0.0516041555f, 0.125992253f, -0.246475682f, -0.351222962f, -0.0481899269f, 0.352660835f, 0.249162927f, -0.0172941927f, -0.0137040792f, 0.00742141111f, 0.0172851011f, -0.156585008f, 0.401138991f, 0.0962612703f, -0.731720686f, 0.171890557f, 0.0403768122f, -0.0948127881f, 0.31544587f, 0.198236644f, 0.316717625f, -0.14958702f, -0.0273079034f, 0.422480911f, 0.0221594945f, 0.0585172288f, 0.065668419f, 0.20801197f, -0.229569227f, 0.0726171359f, -0.180436552f, -0.0530046336f, -0.063636817f, 0.0392594747f, -0.0235066302f, 0.0401341729f, 0.139303043f, -0.152444676f, -0.195308402f, -0.0421839207f, -0.386852235f, -0.275006443f, -0.119197227f, -0.268421978f, 0.209237397f, -0.331614494f, -0.305882096f, 0.354301691f, 0.235117793f, -0.109325044f, -0.133411795f, 0.0333945528f, -0.0337042212f, -0.223182514f, -0.286612839f, 0.0334595628f, -0.0253857449f, -0.401592195f, 0.380812943f, 0.249027699f, -0.0610950328f, -0.0573766008f, -0.155160934f, -0.239932165f, 0.249704629f, 0.0979295969f, 0.242091626f, -0.177071616f, 0.0609388091f, -0.114797458f, 0.150934443f, -0.247060969f, 0.0660659f, -0.0112150759f, -0.0774018392f, -0.205194458f, 0.174418986f, 0.156790793f, 0.463589042f, 0.194581792f, -0.202905521f, -0.014260822f, 0.276617348f, -0.0617829338f, -0.0212812144f, -0.238146603f, -0.102810733f, -0.441563934f, 0.268948585f, 0.0408178009f, 0.352280557f, -0.243154123f, 0.402353942f, 0.0206533298f, -0.117494024f, -0.212434903f, -0.0964608714f, -0.0852393955f, -0.286340743f, 0.119827099f, -0.313989282f, -0.334870696f, -0.647032797f, 0.551644027f, 0.0521245971f, 0.519032001f, 0.218943521f, -0.0371655598f, 0.00458203116f, 0.0354993194f, -0.0402816832f, 0.00986400992f, -0.0967859104f, 0.065172784f, -0.146112829f, 0.213149786f, 0.044443924f, -0.249033824f, -0.100392401f, -0.204577848f, -0.135620579f, 0.320027113f, 0.0669619888f, 0.209244266f, 0.0875960067f, 0.186767057f, 0.0788235515f, 0.0132464776f, 0.113179795f, -0.0111940103f, -0.206329361f, 0.121972822f, 0.305518657f, -0.166251078f, 0.236917645f, -0.0458549f, -0.0588170439f, -0.00609506713f, 0.144264609f, 0.197213113f, 0.0280551016f, -0.654411793f, -0.186030522f, -0.108108826f, -0.115570009f, -0.00831582304f, -0.232422113f, 0.0488109924f, -0.169067219f, -0.144979849f, -0.319781452f, 0.381692916f, -0.172857359f, 0.286249548f, -0.172564343f, 0.300936043f, 0.00126875448f, 0.409629136f, 0.10102725f, 0.0611926392f, -0.105667382f, 0.0707965493f, -0.0554378591f, 0.173157081f, -0.0601945221f, 0.07348492f, -0.307834029f, -0.0475473031f, 0.464652568f, 0.0997201949f, 0.0771702006f, -0.305291653f, 0.0888914019f, -0.170432717f, 0.130593553f, -0.237672105f, 0.00903640501f, -0.098619096f, -0.0812846273f, 0.111566968f, -0.0467555672f, -0.0347331353f, 0.205253392f, 0.524717987f, -0.328875303f, -0.0920733288f, 0.0838104486f, 0.0341474414f, 0.203168541f, -0.183989257f, 0.236164957f, 0.232344717f, 0.16846557f, 0.0332695842f, 0.137544036f, 0.416004032f, 0.147595406f, -0.24397324f, -0.0378005691f, -0.232870281f, -0.249254927f, -0.0800670162f, 0.0829253569f, -0.339745611f, -0.307292461f, -0.0588823259f, -0.718749046f, -0.486979246f, 0.0319202356f, 0.0319019295f, -0.0715541691f, -0.0409447029f, 0.0771767572f, -0.142695934f, -0.113288052f, -0.121333331f, -0.0362906493f, 0.0125850197f, 0.341020584f, 0.295267373f, 0.351302922f, -0.274601221f, 0.0191007536f, 0.308921784f, 0.169786528f, 0.295174569f, -0.104240343f, -0.0772484988f, -0.037924584f, 0.108658575f, -0.437702149f, 0.163571447f, -1.17146683f, 0.0876942202f, -0.00487376936f, -0.273153305f, -0.160720512f, -0.293705672f, -0.1826704f, -0.483005702f, -0.648341775f, -0.205477238f, -0.120324619f, -0.0798144639f, 0.000374413154f, 0.0231178831f, -0.28687799f, 0.0715657324f, 0.649932384f, 0.0912397802f, 0.0370237231f, 0.0776257589f, -0.00047579591f, -0.2702097f, 0.21655786f, -0.055786822f, 0.279899567f, -0.433337897f, -0.0439267308f, -0.232252359f, -0.190357655f, -0.178423479f, -0.0178059377f, -0.336975992f, 0.0737321898f, -0.201746464f, -0.0929204226f, 0.0428867154f, 0.380111068f, -0.0829744786f, -0.0509784855f, -0.295270473f, -0.312058955f, -0.14375338f, -0.180402517f, -0.260797918f, -0.176954702f, 0.119850717f, 0.234552249f, -0.466224015f, -0.120267205f, -0.0384487547f, 0.0327142403f, -0.300637007f, -0.362123251f, 0.356886834f, -0.376760006f, 0.043041274f, 0.193468794f, 0.123329639f, 0.359163404f, -0.276767582f, -0.134963557f, -0.0584242828f, 0.143703029f, -0.275650144f, 0.079975903f, -0.863000631f, 0.507460058f, -0.00190182996f, -0.188075855f, 0.0688179284f, 0.119044989f, 0.229056701f, -0.24833636f, -0.151294887f, 0.341865093f, 0.114919312f, 0.0628562495f, -0.312091082f, 0.159803033f, 0.102036461f, -0.088882111f, -0.440815002f, -0.0982308239f, 0.274459094f, 0.0985045061f, -0.0298305564f, 0.268658012f, -0.0754835308f, 0.244694814f, -0.0795521289f, 0.111746311f, -0.701228261f, -0.150961667f, 0.306739151f, 0.120757937f, -0.2294866f, 0.435278803f, 0.0105270781f, 0.0761037096f, 0.203549996f, -0.0201964881f, 0.00896335486f, 0.296461552f, 0.226645336f, -0.449375272f, 0.166200042f, -0.152488664f, 0.281810939f, -0.573483229f, 0.0460025296f, 0.0712917373f, -0.107410252f, 0.222195461f, 0.00596896932f, 0.22065255f, 0.197132453f, -0.182418719f, 0.165286541f, 0.13693729f, 0.0780211762f, -0.238566592f, -0.254497081f, -0.113220535f, -0.0917497352f, 0.127554893f, 0.212378323f, 0.27351597f, -0.0685001239f, 0.0641863942f, 0.170261815f, -0.287582636f, -0.300735235f, 0.0319095217f, 0.550740302f, -0.291911006f, -0.0850303322f, 0.103646733f, -0.00857590046f, 0.494626939f, -0.279927075f, 0.22633104f, 0.0272551049f, 0.51954776f, 0.253750801f, 0.452201307f, 0.0949910134f, 0.425311893f, -0.22497955f, -0.114780039f, 0.233298868f, -0.118581586f, 0.103477068f, 0.313195795f, 0.214954913f, 0.198019162f, 0.111772127f, -0.0604574457f, 0.32703647f, -0.34724614f, 0.106562898f, -0.000214638407f, -0.252006263f, 0.109323055f, 0.301003307f, -0.0346152186f, -0.00112257071f, -0.202221125f, 0.0728372186f, 0.0766412318f, 0.0325743146f, -0.212341502f, -0.31057933f, 0.5219419f, -0.13438195f, 0.0795878246f, -0.19968304f, -0.0226750709f, 0.155476078f, -0.193140343f, -0.00558933849f, 0.0540290587f, 0.319613338f, -0.228161141f, 0.247264951f, -0.0827171579f, 0.100503512f, -0.0219379775f, -0.0754827186f, -0.0563182496f, 0.0536753088f, 0.0299220607f, -0.206347495f, 0.309723824f, -0.294282794f, 0.221907496f, -0.0766058117f, -0.739325225f, 0.268998146f, -0.466285229f, -0.0290390067f, 0.0375998728f, -0.311069876f, 0.157625645f, -0.137828216f, -0.185834959f, -0.271018147f, 0.0667330921f, -0.144904971f, -0.0581458397f, -0.219145581f, 0.174836203f, 0.494886726f, -0.290808111f, 0.0311686844f, -0.0338147916f, 0.0395252518f, 0.114316009f, -0.113900721f, -0.0510020554f, 0.11637599f, 0.1238245f, 0.0537358224f, 0.227471009f, 0.223220617f, 0.477118611f, -0.579765856f, -0.146257877f, -0.198539138f, -0.0446485914f, 0.220896393f, -0.0228159335f, 0.301635116f, -0.156594783f, 0.29884249f, -0.0273445621f
};

static const float B1[64] = {
    -0.352641791f, -0.338595688f, -0.169591084f, 0.137847796f, -0.220936716f, -0.143728644f, -0.0891610831f, -0.335363656f, 0.208512783f, -0.220901877f, -0.351800084f, -0.147044227f, -0.13405025f, -0.130167261f, -0.00031307264f, -0.0950619951f, -0.0500859767f, 0.170405984f, -0.167917132f, -0.173422068f, -0.313546628f, -0.0370369889f, -0.193374857f, -0.0663163215f, 0.0894351602f, -0.0615353473f, 0.119015038f, 0.0640804544f, -0.12018168f, -0.145744532f, -0.0226114672f, -0.136120901f, -0.25398615f, 0.106062859f, 0.122987695f, 0.105938889f, 0.0763941631f, -0.325488865f, -0.143145844f, 0.149598077f, -0.0991301537f, -0.127496168f, -0.207702607f, -0.115204006f, 0.0680739507f, 0.122696713f, -0.0720782951f, -0.125634283f, -0.116199613f, -0.133105844f, 0.190922588f, 0.0759369954f, 0.208468363f, 0.0215364173f, -0.035576798f, -0.175340593f, -0.255081475f, -0.0416892543f, -0.149538711f, -0.115408264f, -0.272053629f, 0.0395119786f, 0.17487967f, -0.0376605354f
};

static const float W2[4096] = {
    -0.0967667177f, -0.015195311f, -0.771143436f, -0.130049869f, -0.0594122298f, 0.219480991f, -0.00335704815f, 0.0769945234f, -0.0988925397f, -0.0435449556f, -0.280252695f, -0.0725143626f, -0.106931366f, -0.396063566f, -0.123135991f, -0.295326352f, 0.0393676907f, -0.0447580442f, 0.113505214f, -0.239129901f, -0.149410814f, 0.213561043f, -0.0935026854f, -0.0136188865f, -0.146415174f, 0.0828671455f, -0.283848554f, 0.000959831697f, 0.166944012f, 0.0493686497f, -0.130223349f, -0.0393075757f, -0.136394799f, -0.11434003f, 0.132732019f, -0.122829072f, -0.36057505f, 0.0518573746f, -0.211007416f, -0.16188179f, -0.391618252f, -0.0961785465f, -0.0416516475f, 0.00251186872f, -0.121565968f, -0.0217213053f, -0.249248579f, -0.187427998f, -0.20167619f, -0.0297644977f, -0.0780908912f, -0.234563038f, -0.268095523f, 0.00992564019f, -0.157446817f, -0.287255704f, 0.0980873555f, 0.0822194889f, 0.0974820778f, -0.45214349f, -0.311490059f, 0.0217768941f, 0.0254899655f, -0.134728864f, -0.0529644489f, -0.0273843464f, -0.12776795f, -0.0167296361f, -0.239424333f, 0.211681277f, 0.041503612f, 0.024738675f, 0.0114525305f, -0.0433818027f, -0.0314301215f, 0.0503410213f, 0.143555909f, -0.0566409454f, 0.197367564f, -0.230878055f, -0.0815925002f, 0.138643578f, 0.0555404462f, 0.129705757f, 0.0452992134f, 0.0821881369f, 0.0142274844f, 0.0767355636f, -0.11953754f, 0.023798516f, -0.114322685f, 0.116463535f, -0.0265138783f, -0.0397251919f, 0.0311729424f, -0.00768127013f, 0.0982388258f, -0.201462254f, 0.111062221f, -0.173572496f, -0.0608464591f, 0.019375734f, -0.106308728f, -0.0801868215f, -0.0660751536f, -0.0466023237f, 0.00886414945f, 0.0582199097f, -0.044809971f, -0.138000444f, -0.0598984733f, -0.0520224124f, -0.0639145598f, -0.0778699517f, -0.00134284934f, -0.123756565f, -0.004950698f, 0.130781651f, -0.00489547197f, -0.0243833177f, -0.187685341f, -0.0379916281f, 0.0564319529f, 0.00120454014f, -0.0401741229f, -0.111202002f, -0.135647625f, -0.0781214908f, -0.175585449f, -0.302574396f, 0.0269419439f, -0.270304978f, 0.0937234014f, -0.217404693f, 0.00448857388f, -0.0404681005f, 0.085575372f, 0.0559842139f, -0.0147854481f, 0.162174582f, 0.215672806f, 0.0183210392f, -0.21167776f, -0.0206701551f, -0.0296468325f, 0.0384275131f, -0.0729028434f, 0.158074573f, -0.359914839f, -0.309653044f, -0.0247997548f, 0.0298925787f, -0.0331666283f, 0.00650412077f, 0.114642888f, -0.135546744f, -0.213776916f, -0.156986549f, 0.0870918632f, 0.0980233103f, -0.311561972f, -0.171652049f, -0.108826019f, -0.111595318f, -0.262605518f, 0.0931228995f, 0.258151829f, 0.233402014f, -0.236069694f, -0.0782666206f, 0.0521016344f, -0.248549148f, 0.0707695559f, -0.342161208f, 0.154547036f, 0.125017032f, 0.0423922502f, 0.0913309306f, -0.431114405f, -0.0224296749f, -0.153799132f, -0.127373233f, -0.0741044134f, -0.0585857369f, 0.239317939f, -0.156624034f, -0.106309332f, -0.211406544f, 0.122739442f, -0.0963102207f, 0.0820647106f, 0.0818157047f, -0.40243265f, -0.196129799f, 0.164131552f, -0.0889810845f, -0.0358689278f, 0.00443975348f, 0.159380719f, -0.0302116051f, 0.0650680438f, 0.140074775f, 0.131697893f, 0.0329869986f, 0.0948472843f, 0.162866518f, -0.31943512f, 0.0411687158f, 0.0494232923f, -0.0830564499f, 0.0294195917f, -0.043257121f, -0.126536205f, -0.169031233f, 0.0366557389f, -0.028914785f, -0.0757529661f, 0.0301661864f, -0.00253746612f, -0.0402122512f, -0.201350302f, 0.159906521f, 0.0255992636f, 0.281749576f, -0.155445263f, -0.14003779f, -0.0694752112f, -0.235175192f, -0.156682521f, -0.0119405575f, 0.049308002f, 0.154128999f, 0.0148998825f, -0.020121742f, -0.208727553f, -0.0660712719f, 0.0179862175f, -0.491861701f, 0.198539764f, -0.0250717811f, 0.0257537141f, 0.0304385703f, -0.455123812f, -0.254422814f, -0.11168965f, -0.116935939f, -0.0557036847f, 0.0201838426f, 0.0119345002f, -0.0959413126f, -0.138004288f, -0.280685633f, -0.0745849833f, 0.069090642f, -0.207939133f, -0.157489538f, -0.085822992f, 0.114780575f, -0.118021704f, -0.112507731f, -0.0421204492f, 0.039912004f, -0.120416544f, 0.121243268f, -0.052020371f, -0.0948976576f, 0.117348276f, 0.0209621545f, -0.0995630324f, 0.0143117402f, -0.309592247f, -0.137401998f, -0.164115652f, 0.0467482321f, -0.103175938f, -0.106061764f, 0.175769001f, -0.0395408981f, -0.00912500359f, -0.0576072969f, 0.00711196195f, -0.0014863495f, 0.0411861762f, -0.0421080589f, -0.0819105953f, -0.0564663671f, -0.204825506f, -0.161196098f, -0.0365289673f, -0.157705203f, -0.0650575459f, -0.118998818f, -0.170721814f, 0.0373183824f, -0.0801658332f, -0.00182255823f, 0.0159696434f, -0.111019105f, -0.225569949f, -0.144611478f, -0.169355616f, -0.0521044061f, -0.0658804178f, -0.0565708987f, -0.157114387f, -0.0770962462f, -0.0502497815f, 0.0480731688f, -0.180684f, -0.25186801f, 0.0206053667f, -0.169759721f, -0.0100643635f, 0.0346974432f, 0.119302355f, -0.194658697f, 0.00468101772f, -0.0272975657f, -0.227725998f, 0.025127111f, 0.211266622f, 0.184467748f, -0.0498847701f, -0.0417230614f, -0.419728994f, -0.0965018049f, -0.00943149067f, -0.167767376f, 0.0155926477f, 0.0395437665f, 0.0324094482f, 0.083629027f, -0.0409551412f, -0.0972839892f, 0.11378549f, -0.0732184127f, -0.0137989279f, -0.00624722615f, 0.0323944576f, -0.0374349393f, -0.355167925f, -0.158472031f, -0.181497633f, 0.0669477135f, -0.209806308f, 0.0275457148f, -0.0683723241f, -0.160779595f, 0.126472339f, 0.066306673f, -0.147008702f, -0.214274138f, -0.158496141f, 0.00248730066f, -0.0921672061f, -0.283658862f, 0.02318836f, 0.098478429f, -0.000411471498f, 0.141263694f, 0.0379061885f, -2.44693274e-06f, -0.0802479163f, -0.248394057f, -0.111808807f, -0.148475304f, -0.106060147f, -0.0740630925f, 0.108216986f, 0.0378982127f, -0.198609948f, 0.111194022f, -0.135479823f, -0.13638632f, -0.0273063071f, 0.0180681795f, -0.250698209f, 0.0207691845f, -0.0808203593f, 0.0145472139f, 0.114042237f, -0.0799158216f, -0.0288532041f, -0.133710682f, -0.0962314755f, -0.224649981f, 0.0678054243f, -0.165344939f, -0.132610455f, 0.0558628365f, 0.000142811812f, -0.0894893184f, 0.0217235088f, 0.0481855534f, 0.105813354f, -0.00250870734f, 0.099806115f, -0.0141109824f, -0.0358363688f, 0.186293989f, -0.200604126f, -0.192797661f, -0.0929470211f, 0.0305064823f, -0.0735940412f, -0.0678506792f, -0.0340384655f, -0.0126890792f, -0.0833499283f, 0.0642084032f, 0.0475429744f, -0.116779186f, -0.0491802916f, -0.0272090714f, 3.98628174e-07f, 0.1871351f, -0.0717777908f, -0.104406722f, 0.0706328079f, -0.168633431f, -0.0946930498f, -0.036032699f, -0.172261447f, -0.0240509044f, -0.16881308f, -0.0817634016f, 0.0144518614f, -0.0796836391f, -0.142972574f, -0.150356963f, 0.00893438887f, 0.0746505484f, -0.160738051f, -0.00187493011f, -0.178974375f, -0.0608681142f, 0.0345096625f, 0.051020477f, -0.114436157f, -0.0327199958f, 0.0629055202f, -0.067556791f, 0.072070986f, -0.054433018f, -0.062882334f, -0.204443127f, -0.0621531084f, -0.0793267488f, 0.14486663f, -0.0770638585f, 0.0225049574f, -0.156757191f, -0.344625443f, -0.0777406842f, -0.242495194f, -0.0578360707f, -0.124532439f, -0.0286304839f, 0.135182455f, -0.210245997f, -0.272302985f, -0.0691460148f, 0.0566864125f, -0.039433226f, -0.129796445f, 0.137020484f, -0.283158422f, 0.057612855f, 0.172528237f, -0.248939216f, -0.258140653f, -0.156482056f, 0.0205860827f, -0.0669988841f, -0.0798004493f, 0.104843237f, -0.00977038965f, -0.138610914f, 0.0330570154f, 0.034730535f, 0.0205638353f, 0.0810678229f, 0.104585834f, -0.0984830186f, 0.245940045f, -0.223751724f, 0.051431302f, -0.157266289f, 0.163234398f, 0.0710256472f, -0.0877311528f, 0.00679624174f, -0.220558807f, -0.424429893f, -0.0590166859f, 0.00242154323f, 0.0810865238f, -0.179188684f, -0.0660562068f, 0.102206483f, -0.286591381f, -0.0215419885f, -0.10346593f, -0.292443484f, -0.0611043908f, -0.168237239f, 0.00837264024f, -0.021067638f, -0.0119594699f, -0.370832294f, -0.0288023893f, -0.166793033f, -0.442278504f, -0.198317751f, -0.0786706731f, -0.0917348713f, 0.106722191f, -0.187622398f, 0.073037073f, -0.172608703f, 0.0962632224f, 0.180103138f, 0.0353548788f, 0.0555218235f, 0.0456806757f, 0.207847372f, -0.258474141f, -0.0953697786f, 0.172616258f, -0.1854112f, -0.0870633498f, 0.200181156f, -0.298072815f, -0.374014884f, 0.133935079f, 0.127368122f, 0.0262501426f, 0.12979956f, -0.0671367496f, -0.0614280403f, 0.0521351025f, 0.0330053158f, -0.0803056434f, 0.149452284f, -0.154007316f, -0.0579955727f, -0.0909931958f, -0.075007461f, -0.27265206f, -0.133568034f, 0.157197312f, 0.14847742f, -0.156176493f, -0.271785587f, 0.0900709555f, -0.368223965f, 0.0565804504f, -0.51643306f, 0.100914299f, -0.0458560549f, 0.0504991002f, 0.0260639302f, -0.358601868f, -0.197105601f, -0.192621723f, -0.0583699085f, -0.0409354307f, -0.0111907674f, 0.212311104f, 0.0117860492f, 0.0977381468f, -0.0983162373f, 0.131362811f, -0.0328591168f, 0.00222708564f, -0.050437063f, 0.0218491424f, 0.0394578166f, -0.0782103166f, -0.113321334f, -0.359451294f, -0.0843729153f, -0.182319909f, -0.148010775f, -0.183075741f, 0.173799753f, -0.0211955123f, -0.310532033f, -0.237741545f, -0.101379186f, 0.0216564965f, 0.231535256f, -0.127444193f, 0.0791059062f, -0.0492487997f, -0.151915491f, -0.0912881792f, -0.108410329f, -0.145600423f, -0.181465775f, -0.339793682f, -0.0366054736f, 0.0418270752f, -0.010111046f, 0.0344307534f, -0.00163832074f, -0.0184992421f, -0.0958773717f, 0.11885228f, -0.088084273f, 0.00112483883f, -0.0742484778f, 0.0928485617f, 0.032348536f, -0.20827207f, 0.106542647f, 0.0709913895f, 0.0891197845f, -0.0651664585f, 0.095761776f, -0.0410615057f, -0.268082112f, 0.0899928659f, -0.189835042f, 0.0873733088f, -0.0300227404f, -0.107268289f, 0.112567991f, -0.170550838f, -0.146237031f, 0.0145525467f, 0.0594832152f, -0.111447245f, -0.184296101f, 0.0604108721f, 0.0997678116f, -0.0171400476f, -0.186118305f, -0.100636654f, -0.277723342f, 0.139755338f, 0.0281770956f, -0.266979933f, -0.128566325f, -0.238839462f, 0.0302237328f, 0.0593613945f, 0.122248106f, 0.0315238535f, 0.149842426f, 0.12751168f, -0.0190600809f, -0.316056669f, -0.26051715f, 0.0975569338f, -0.0277377926f, 0.072929211f, 0.169942901f, -0.0272125863f, 0.152696043f, 0.0519869737f, -0.206313163f, -0.188909262f, -0.195231199f, -0.032016173f, -0.0166427959f, 0.033117488f, -0.0657075495f, 0.0187018774f, 0.0655033663f, -0.0464649089f, -0.0785631165f, -0.108359404f, 0.126150593f, -0.16422525f, -0.0525588058f, 0.0762588605f, -0.237932146f, -0.204219729f, -0.126065329f, 0.0350837745f, 0.216590568f, -0.156040862f, 0.0333906524f, -0.382577926f, -0.319996297f, -0.175418079f, -0.0564374141f, -0.249634534f, -0.192262948f, -0.301820993f, 0.103865631f, 0.00825759303f, 0.0763399526f, -0.143120706f, 0.11703451f, -0.208053738f, 0.150172248f, 0.106020093f, -0.192433953f, 0.0180182364f, -0.184765384f, -0.15757601f, -0.0267003607f, -0.200238466f, 0.14853248f, -0.220152915f, -0.0532156974f, -0.128335848f, -0.103550531f, -0.190306157f, 0.330828249f, 0.0696650222f, 0.0231358744f, 0.0420343876f, -0.0243840981f, 0.0146713741f, -0.169222295f, 0.208831519f, -0.256962061f, 0.00406235084f, 0.154549032f, 0.0629532039f, -0.0240147859f, -0.174526364f, -0.196834832f, -0.0939249918f, 0.100932047f, 0.161066771f, 0.0772702843f, -0.119917959f, -0.287720352f, -0.0319249891f, -0.0460894071f, 0.0307991635f, -0.157233164f, -0.30883342f, -0.108983286f, -0.101660438f, 0.0271892026f, -0.176646873f, 0.169594869f, 0.0971605033f, 0.0340652205f, -0.119136296f, 0.0722693354f, -0.183906421f, -0.01458399f, 0.0209181849f, -0.0737064108f, 0.0798100457f, -0.0652491376f, -0.00773809757f, -0.0738584027f, 0.271802932f, 0.00738103222f, 0.0635816157f, 0.0760474354f, 0.110014282f, -0.23017092f, 0.235709503f, -0.160484433f, 0.0815678388f, -0.247032627f, -0.026298888f, -0.168911055f, 0.0503793173f, -0.207346722f, 0.0979841053f, 0.106463246f, 0.0673674271f, -0.0754231811f, -0.410944492f, -0.188563094f, -0.0124475015f, 0.00625208719f, -0.0974858329f, 0.120435633f, 0.0301241539f, 0.140746191f, -0.0725842565f, -0.222465649f, 0.293853313f, -0.137037024f, 0.0139214918f, 0.0581673048f, 0.165804029f, 0.170400172f, 0.135567412f, -0.083010152f, -0.495445907f, -0.00966361538f, -0.259794772f, 0.0237161331f, -0.29993993f, -0.131307065f, 0.193214953f, 0.304266483f, -0.082905896f, -0.154242843f, -0.0754589587f, 0.111010812f, -0.115234435f, -0.223349571f, 0.0700771734f, 0.0289976113f, -0.145086765f, -0.123126306f, 0.147586465f, 0.137366369f, 0.139145002f, -0.144319907f, -0.283217192f, -0.356212288f, 0.0768178701f, 0.222311661f, -0.0652031749f, 0.0745506734f, -0.218152553f, 0.0218539108f, 0.00886635296f, -0.0298853591f, 0.114541978f, -0.0638665333f, 0.0239973348f, 0.169110581f, 0.0485015288f, -0.0551280491f, -0.0601300597f, -0.102307752f, 0.0780503377f, -0.26489985f, -0.31991908f, -0.486264467f, -0.136414468f, -0.0406403393f, 0.12803857f, -0.243648842f, -0.08720617f, -0.225464061f, -0.00166145794f, 0.00279541477f, -0.149404883f, 0.0961843729f, 0.237812772f, 0.121878497f, -0.157704309f, -0.10226012f, 0.208370239f, 0.0553073063f, -0.117739499f, 0.200105295f, -0.273851424f, -0.217148036f, 0.178330049f, 0.115492031f, -0.0312076155f, 0.141124114f, 0.0506235324f, -0.249459952f, -0.04185386f, -0.264611483f, 0.0534543395f, 0.103380255f, -0.178075761f, -0.211132154f, -0.121831372f, -0.171511009f, -0.386277705f, -0.0277736075f, 0.0912182406f, 0.143612459f, -0.0545580275f, 0.0101934103f, -0.024903791f, -0.337857574f, -0.0485659428f, -0.365256399f, 0.0588270649f, 0.234836176f, -0.0699478462f, -0.0971791819f, -0.423955679f, -0.203689337f, 0.0662209466f, -0.0363761969f, -0.184374183f, -0.0738395303f, 0.227591336f, 0.0183244999f, -0.017133357f, -0.0842756256f, -0.194168076f, -0.325605512f, 0.0437738337f, -0.333721131f, -0.183966488f, -0.184111863f, 0.0108664567f, -0.2536107f, 0.0221156031f, -0.221787214f, 0.0611637607f, -0.164544642f, -0.316863924f, -0.239311755f, 0.0655333102f, -0.0643022805f, -0.0256563369f, -0.043252524f, -0.0993850529f, 0.0494050011f, 0.109788023f, -0.161264673f, -0.1141124f, -0.180097014f, -0.0263249986f, 0.0539099351f, 0.0690122768f, 0.0854107141f, -0.0307062846f, -0.304463059f, -0.0283159595f, 0.0443148389f, -0.176389739f, -0.253308475f, 0.0800720379f, 0.0160102732f, -0.04239114f, -0.0100786258f, 0.0553880967f, -0.0280705374f, 0.0355434082f, -0.033358641f, -0.0180057567f, 0.00312746596f, -0.0405923538f, -0.032897722f, 0.265426934f, -0.108255453f, -0.0189213902f, -0.0433992967f, 0.0544295982f, -0.005442088f, -0.128982559f, 0.00113776722f, -0.022557294f, -0.0802817494f, -0.365031838f, 0.0527810827f, 0.0672661215f, -0.075141646f, 0.373842001f, 0.0814613029f, 0.00765514094f, -0.0305860862f, 0.183482036f, -0.173552006f, 0.163945794f, 0.296275973f, -0.399523586f, -0.456099778f, -0.32433328f, -0.0361980647f, 0.189134851f, -0.168061078f, 0.139305592f, 0.0427598171f, -0.417860836f, 0.186940685f, -0.0935334638f, 0.196495578f, 0.24709551f, 0.224460348f, -0.0187743437f, 0.171443701f, 0.0689680725f, -0.293929398f, -0.247867897f, 0.0699077472f, -0.250615239f, -0.103841349f, 0.267569482f, -0.0460644737f, -0.00986975804f, -0.414224476f, 0.178214237f, 0.0953688025f, -0.0797589719f, -0.210531175f, -0.0101545295f, -0.360278249f, -0.0910494626f, -0.185573608f, 0.1162185f, -0.0302320216f, -0.155378968f, -0.105876125f, -0.0883983672f, -0.0170379076f, -0.0963774398f, -0.034467496f, 0.258149117f, -0.227170393f, 0.133339047f, -1.22053814f, -0.236340091f, 0.10532964f, 0.0532488935f, -0.0122131752f, -0.435801327f, -0.171512321f, -0.228676438f, 0.0912623629f, -0.200623378f, -0.00576060265f, 0.18130368f, 0.000800306734f, -0.344854504f, -0.0568882972f, 0.0115309283f, -0.0222242326f, 0.161242127f, -0.0335548967f, -0.0755724236f, -0.117402069f, -0.0189402979f, -0.0878245011f, 0.167536095f, -0.056134019f, 0.0562136844f, -0.0656771362f, 0.0439174213f, 0.0474209376f, -0.10718029f, -0.178496093f, -0.0770211816f, -0.0184950903f, -0.222167f, -0.111877494f, 0.0563144945f, -0.175837398f, 0.042206157f, -0.0342312008f, 0.01655709f, 0.0296658315f, 0.00328259799f, -0.0459737815f, -0.0251649544f, 0.083418943f, -0.181966931f, -0.151523978f, 0.0955686495f, -0.106080048f, -0.189267904f, -0.00623228401f, -0.103526637f, -0.03794479f, -0.147601515f, -0.0135792401f, -0.0848922804f, -0.0462482497f, 0.0128660966f, -0.0416333973f, -0.01370636f, 0.0817506313f, -0.225388572f, -0.0201711785f, -0.159797132f, -0.168012708f, -0.111213095f, 0.00806907937f, -0.0931995288f, -0.0195208173f, 0.0979802832f, -0.0549761243f, -0.191750631f, -0.228469759f, -0.113429092f, 0.0727536678f, -0.170341954f, -0.0907744765f, 0.0472949557f, 0.0499608926f, -0.00754394569f, -0.0111053176f, 0.00663355039f, 0.029262526f, 0.167181f, -0.232284218f, -0.167384356f, -0.276543021f, -0.115418024f, -0.275558293f, -0.0904428586f, 0.271195918f, 0.00879869238f, -0.111327872f, -0.0449588709f, -0.415561885f, -0.342804193f, 0.316831231f, -0.0153031154f, 0.167943716f, -0.148885325f, 0.0555726811f, -0.239332557f, 0.0732874647f, 0.200743631f, 0.164751872f, 0.150480181f, 0.0123246834f, -0.362721056f, 0.0766170695f, 0.218536615f, -0.17501758f, -0.184458271f, -0.15774782f, 0.0955596641f, -0.227990538f, 0.249156147f, 0.0766402036f, 0.154526308f, -0.0504715778f, 0.238080993f, -0.0141909951f, -0.0377088897f, 0.171773106f, 0.101000622f, -0.0651506186f, -0.248614267f, -0.267343938f, 0.0563484579f, -0.323673099f, 0.237772807f, 0.130828336f, -0.165215001f, -0.339684159f, -0.0637030527f, 0.18606624f, -0.584779561f, -0.463821352f, 0.105485544f, -0.293004125f, -0.159432456f, -0.251350552f, 0.0159603618f, 0.14357698f, 0.132435247f, -0.226450399f, 0.0412800349f, 0.224326834f, 0.117759518f, -0.060621012f, 0.0739618242f, 0.0268578846f, 0.0924632922f, -0.258761346f, -0.14073813f, -0.0955303907f, 0.0618779361f, -0.165365338f, -0.0824398398f, -0.0964581519f, -0.0607146583f, -0.231817678f, -0.0224983934f, -0.271269143f, 0.066452682f, 0.0495341569f, 0.118762821f, -0.063789092f, 0.211047575f, -0.0918818563f, -0.154151633f, 0.054140538f, -0.127224654f, 0.122208655f, -0.00497002341f, -0.0922664627f, 0.0505414568f, -0.0273520872f, 0.0576319285f, 0.00820612814f, -0.0447443984f, 0.0552994646f, 0.13152054f, -0.0257250909f, 0.0758616477f, 0.0538262986f, -0.242485031f, -0.029307723f, 0.00214119395f, -0.0540009923f, 0.123647615f, -0.119746692f, 0.0251772311f, -0.198126242f, -0.0903850347f, 0.0789126605f, -0.0143436156f, -0.0703193471f, -0.125801593f, -0.0728657097f, 0.0253843125f, -0.0281787217f, 0.0446253158f, -0.103097834f, 0.164614737f, 0.166257769f, 0.0346937105f, 0.18192023f, -0.0111427931f, -0.00192796567f, 0.0647116676f, 0.116404399f, -0.0905532017f, -0.0417749882f, 0.117050573f, 0.0244339369f, 0.12349987f, -0.00972544122f, -0.0909421891f, -0.129911512f, -0.184955701f, 0.0647553131f, 0.0478679314f, 0.305686533f, -0.0938565731f, -0.153359145f, 0.0535557382f, -0.30737406f, 0.0284357276f, 0.0351680033f, 0.011295096f, -0.0689316392f, -0.113406658f, 0.0245710686f, -0.181737512f, 0.0018223268f, 0.0781015605f, -0.0526718311f, -0.00466254912f, -0.123760946f, 0.13922435f, -0.245770723f, 0.0601828992f, 0.109167837f, -0.075283207f, 0.089122273f, -0.0263949372f, -0.120689653f, 0.0940860882f, 0.10442993f, -0.0638845265f, 0.00154213293f, -0.101872504f, -0.0925970972f, 0.326206028f, -0.0356216952f, 0.0827834681f, -0.199733004f, -0.143265724f, -0.0879132897f, 0.0370237678f, -0.0273342188f, -0.0311302263f, 0.00368878478f, 0.0489925779f, -0.00717197685f, -0.123584449f, -0.0393779241f, 0.399457991f, 0.271006674f, -0.00556617463f, 0.0678673163f, -0.0320330672f, -0.196921393f, 0.15362522f, 0.122721002f, 0.171997786f, 0.127407953f, -0.277572572f, 0.0535600781f, -0.237864316f, 0.0472614579f, 0.00169620302f, -0.30614841f, 0.0124099823f, 0.068968758f, 0.00986731797f, -0.0988513827f, -0.267584592f, -0.170080215f, 0.0294515993f, -0.600485265f, 0.0351535343f, 0.0227821581f, 0.0851406455f, -0.026162345f, 0.00782276317f, 0.159678683f, -0.0945712775f, 0.0872419402f, -0.20037356f, -0.243343726f, -0.201380625f, 0.114463031f, 0.0528015643f, 0.0812195167f, -0.0565514751f, -0.0170937888f, 0.0669859946f, 0.0610963814f, 0.136447072f, -0.445815682f, 0.0813730061f, 0.10801845f, -0.272088289f, 0.144037992f, -0.00685936213f, -0.0297856797f, 0.0468974784f, -0.0353854634f, 0.0749831647f, -0.296427518f, 0.0747881904f, -0.0782767534f, -0.171587467f, 0.0164321158f, -0.191538006f, 0.220833153f, -0.039975103f, -0.208238825f, -0.126880586f, -0.133386463f, -0.0641707331f, 0.0881502554f, 0.110513955f, -0.372540295f, 0.168138638f, 0.024751626f, -0.0370044224f, -0.0969506502f, 0.0905160233f, 0.130189642f, -0.199847728f, -0.420941502f, -0.0314556994f, 0.162558749f, 0.0671441406f, 0.00903397985f, -0.0663219541f, -0.310474366f, 0.0362261273f, -0.272297591f, -0.223762184f, -0.331698567f, 0.14414914f, -0.27352497f, 0.0183656812f, -0.00407401565f, -0.00547286682f, 0.1638183f, -0.0405654907f, 0.194637358f, -0.0459395014f, -0.128135532f, 0.132626548f, -0.310865968f, -0.209843591f, 0.207515433f, 0.0158404857f, 0.193494946f, -0.106054321f, 0.131658763f, -0.0283926222f, 0.141004965f, 0.167829499f, -0.599378705f, -0.0416507646f, -0.31027624f, 0.161298975f, -0.0356864482f, -0.0128763774f, -0.000954190968f, -0.138042778f, 0.0120061012f, 0.103857063f, -0.547321439f, 0.170395494f, -0.284861743f, -0.156498447f, 0.0390378013f, -0.458994985f, 0.16741161f, -0.207247019f, -0.0487930253f, -0.0896182358f, 0.034446951f, 0.033306513f, 0.0896408856f, -0.0941049159f, -0.274162322f, 0.0872676522f, 0.0453706793f, -0.0337965451f, -0.17444481f, 0.100392945f, -0.224079877f, -0.235836983f, -0.246569216f, -0.216411307f, -0.0375152305f, -0.0212994628f, -0.215732634f, -0.240794659f, 0.123594224f, -0.0539266579f, -0.0327456407f, -0.181846201f, -0.142821357f, -0.0604225472f, -0.372113198f, -0.00591908488f, 0.023234427f, -0.00758232968f, -0.017071953f, 0.217617273f, -0.0752920881f, -0.0653436482f, 0.0136672175f, -0.252863437f, -0.173045307f, -0.00888210908f, -0.119645938f, -0.130041614f, 0.0781519637f, 0.0581021719f, -0.0988543853f, -0.101382077f, 0.0385935791f, -0.135801107f, -0.146462739f, 0.191033632f, -0.177648634f, -0.148319289f, -0.0611748919f, 0.147614598f, 0.114575863f, -0.00505868811f, -0.0889966413f, -0.209893182f, -0.388723165f, -0.149805799f, -0.0763876736f, -0.125029415f, -0.0435730554f, -0.272946805f, 0.0997539088f, 0.00537073845f, -0.0276656114f, -0.097964257f, -0.143414274f, -0.00614493014f, -0.0338427313f, 0.0905086696f, -0.174545348f, 0.132211789f, -0.11906679f, 0.000952616683f, 0.122460686f, -0.0390959531f, 0.0135355089f, 0.317850381f, -0.139803186f, -0.240637287f, -0.0222231522f, -0.562975943f, -0.0716418102f, -0.131286755f, -0.0126906382f, -0.0465748794f, -0.251847297f, 0.0709651783f, -0.192216963f, -0.149730697f, 0.197981179f, 0.0958627909f, 0.182979584f, 0.063157469f, -0.161956713f, 0.234918863f, 0.0587505959f, -0.122408457f, -0.0443944372f, -0.195083395f, 0.03222204f, -0.117489561f, -0.112584129f, 0.148316205f, 0.149225473f, -0.0760695934f, 0.0342842564f, -0.15747796f, -0.0629307181f, 0.162849888f, 0.117623799f, 0.129629806f, 0.00990933459f, -0.224741474f, -0.0425564349f, -0.144076735f, -0.0225790106f, 0.146624863f, -0.0666541681f, 0.110191934f, -0.251950324f, -0.0958157927f, 0.0258074496f, -0.17512162f, 0.097376436f, -0.221711472f, 0.136962727f, -0.748127937f, -0.230506986f, 0.181756571f, 0.109128773f, 0.283715338f, 0.235548839f, 0.106199853f, 0.217534095f, 0.0094030071f, -0.239473179f, 0.102705717f, -0.105746731f, -0.20031704f, 0.0551116578f, -0.220101595f, 0.01831761f, -0.0598198734f, -0.0271798596f, -0.00174363435f, -0.137873068f, 0.0127844829f, -0.0117365764f, -0.0177778918f, -0.36877045f, -0.0372428745f, -0.142527431f, 0.0415304787f, -0.0416413434f, -0.0625470504f, 0.0505142733f, -0.0858458281f, 0.078010574f, 0.0623702332f, 0.0309669487f, -0.287983477f, -0.0526298992f, -0.0182902422f, 0.0977766514f, -0.035929665f, -0.136645421f, -0.031656649f, -0.0284879897f, 0.0641575232f, -0.00619084621f, 0.287952572f, -0.148826078f, 0.0492474698f, -0.127375633f, 0.00552338595f, 0.00200614356f, -0.111733384f, -0.154255614f, -0.164667502f, -0.158457488f, -0.329070747f, -0.12644878f, 0.0697236583f, -0.0887418762f, -0.016414566f, -0.234365717f, -0.129567087f, -0.184150666f, 0.101541467f, -0.0874221697f, -0.0874338523f, -0.159869462f, -0.0543425158f, 0.00194521132f, 0.0615289435f, -0.19020094f, -0.0714639947f, 0.0635197163f, 0.000397268101f, -0.2436876f, -0.112926573f, -0.100903258f, 0.0747944415f, 0.0148293367f, 0.0483889654f, -0.214053884f, 0.28814134f, -0.24869062f, -0.24692218f, -0.142164782f, -0.421054095f, 0.0404647887f, -0.111124605f, -0.0660326704f, 0.223176762f, 0.15017572f, -0.621161222f, 0.139494553f, -0.0250505153f, -0.190991729f, -0.0113825444f, -0.202723891f, -0.133750454f, -0.477449089f, 0.255145937f, -0.0460892506f, 0.0843672901f, -0.142883852f, 0.0028857023f, -0.0366990082f, -0.000383495761f, 0.0210184138f, -0.175005108f, -0.147969827f, -0.0111687072f, 0.0557019748f, -0.138032347f, -0.363568723f, -0.0384025499f, -0.0798596144f, 0.0826515183f, -0.00304507487f, 0.0477156751f, 0.0193379838f, 0.00406075735f, -0.218391672f, 0.161501184f, -0.331582397f, -0.0668078437f, 0.146646559f, 0.129269004f, -0.0472386181f, -0.374885261f, -0.0433748662f, -0.443455458f, -0.093660675f, -0.0324428678f, -0.165493876f, 0.0193643495f, -0.163648963f, -0.0439991243f, -0.386411369f, -0.149724066f, 0.145643994f, -0.103118658f, -0.184304878f, -0.231307268f, -0.066005446f, 0.142580196f, -0.105007671f, -0.196077675f, -0.0336101092f, -0.0607326142f, 0.0192805305f, -0.17548193f, -0.0541013665f, -0.0749758631f, 0.00939325802f, -0.0575171374f, 0.093320109f, -0.00845993962f, -0.387031823f, 0.0183045659f, -0.250589252f, -0.170769021f, 0.0508260168f, -0.0810409635f, -0.0713596046f, 0.140795887f, -0.134457514f, -0.145673901f, -0.1285934f, -0.00118633814f, -0.0458514132f, 0.0558236577f, -0.170494288f, -0.0470652953f, -0.0342348553f, 0.0305011719f, -0.101471096f, 0.0303997286f, 0.0152880903f, -0.00754716853f, 0.0410989299f, -0.00411980972f, -0.0152440015f, -0.220119014f, 0.00488049863f, -0.0399485566f, -0.0595033616f, -0.0218414236f, 0.000843053742f, -0.0329566002f, 0.0456717126f, -0.0489187501f, -0.125136152f, 0.0590952858f, -0.0909828916f, -0.0716307834f, -0.141226918f, -0.170772359f, -0.0355793387f, 0.118820861f, 0.0953911468f, -0.0541797131f, -0.352551788f, -0.00558654219f, -0.247642338f, -0.0869708434f, 0.0982696861f, -0.403369874f, 0.0715961233f, -0.279096246f, 0.168775365f, 0.248662382f, -0.164848298f, 0.140313998f, -0.303081781f, -0.06761989f, 0.0818149f, -0.164964184f, 0.0038818894f, -0.0844028667f, 0.0793900415f, 0.0613015741f, 0.268440306f, -0.329914004f, -0.192690298f, 0.047755532f, -0.10470926f, -0.145006508f, -0.0971802622f, -0.0669340938f, -0.259869158f, 0.218934432f, -0.0558746941f, -0.0504528172f, -0.0309294462f, 0.0600630045f, -0.291090637f, -0.168977603f, 0.0189971011f, -0.0657859743f, 0.027684968f, -0.0207681879f, -0.11479944f, 0.0332617722f, -0.256389827f, -0.194732666f, -0.113546304f, 0.148794383f, -0.104004629f, -0.162138358f, 0.0108568361f, -0.142756969f, 0.165510416f, -0.00071257964f, -0.14223668f, -0.191398114f, 0.130753785f, -0.153209105f, -0.120762594f, 0.0622086301f, -0.0112934085f, 0.101582661f, -0.0293705296f, -0.217312157f, -0.363336563f, -0.00378544f, 0.112367257f, -0.15254429f, 0.196334854f, -0.414180219f, -0.330309302f, -0.240279511f, -0.0893670171f, 0.0958891883f, 0.0055982396f, -0.0546703786f, -0.197101757f, 0.0521201342f, -0.047755789f, -0.171993077f, -0.328234166f, -0.117584459f, -0.208999872f, 0.0335863121f, -0.0417722203f, -0.152639642f, -0.0785648972f, -0.0940381959f, -0.000136902934f, 0.000641301274f, -0.0733976513f, 0.0747233853f, -0.146254331f, 0.030637851f, -0.163625225f, -0.0672900081f, 0.0444886722f, 0.117281139f, -0.00889218226f, 0.0754232109f, -0.0788107887f, 0.0242876187f, -0.0541682094f, -0.0488366857f, 0.0772844926f, 0.112570889f, -0.0754092932f, -0.00804399326f, -0.0807719678f, -0.0503049158f, -0.188609302f, -0.0421334654f, -0.0283603333f, 0.174713746f, -0.0261503514f, -0.134263605f, -0.0659335256f, 0.000616001198f, -0.113350324f, 0.0850709155f, 0.0674254149f, 0.0352737345f, -0.120004877f, -0.0909604356f, -0.10270723f, -0.0261341762f, 0.0429126285f, 0.227485567f, 0.162336171f, -0.12974067f, 0.135182783f, -0.0365093686f, -0.0617634766f, 0.186892822f, 0.186826304f, 0.0986781716f, -0.196411863f, 0.25534749f, -0.190389365f, 0.355548412f, 0.0276020821f, 0.113806389f, -0.0447498783f, 0.0417503491f, 0.18093586f, -0.156142443f, 0.0407581553f, 0.555615187f, 0.102267139f, -0.348264426f, 0.123867653f, -0.153734222f, -0.0983509347f, -0.256296903f, -0.131315157f, -0.264478683f, -0.373771161f, 0.239595607f, 0.160270795f, -0.00583166676f, 0.0283561293f, 0.0826794207f, -0.0573813096f, -0.20987092f, -0.0254276153f, -0.0540981255f, 0.0973282307f, -0.0231599621f, 0.132072419f, -0.235769734f, -0.240040213f, -0.101701677f, -0.0649518445f, -0.0178868845f, -0.0253067203f, 0.0307066161f, -0.222961336f, 0.0154832518f, -0.280304402f, 0.199622244f, -0.166728064f, 0.131882638f, 0.103383079f, 0.126573414f, 0.105140299f, -0.0531748757f, -0.109160215f, -0.123502433f, -0.249060497f, 0.00912377052f, 0.0408687741f, -0.00453980407f, -0.0892684385f, -0.0849630982f, -0.235093698f, -0.145729586f, 0.0865256935f, -0.161251977f, -0.401056558f, -0.0740887597f, -0.1899001f, -0.0921307355f, 0.148843989f, 0.169830248f, -0.155482724f, 0.0712188855f, -0.0457147993f, -0.310701668f, -0.168090448f, -0.04128436f, 0.0460173972f, -0.0255648661f, -0.158541694f, 0.00514661148f, -0.153846577f, -0.138800725f, -0.0388856158f, -0.125784591f, 0.00165312272f, -0.0317924544f, 0.00910671894f, -0.178078264f, -0.00314007234f, 0.110628352f, -0.15309836f, 0.0636039078f, -0.0479850844f, 0.058404427f, -0.344136328f, 0.118290007f, -0.0371259823f, 0.13440609f, 0.126928806f, -0.00177796977f, 0.0440573506f, -0.00129824388f, 0.0186865386f, -0.0681285262f, 0.136587039f, 0.000479960319f, -0.0999128819f, 0.169206902f, -0.338015348f, -0.0112756984f, -0.277223885f, 0.08397533f, -0.0858335719f, -0.106827587f, -0.107907899f, 0.0116075519f, 0.0496658199f, 0.0722187385f, -0.0914162844f, 0.0228414964f, 0.12031775f, 0.35444802f, 0.30679521f, -0.208823174f, 0.0306994673f, 0.13890931f, -0.182474852f, 0.085646905f, 0.327030331f, -0.0265107527f, -0.316657394f, -0.420716703f, -0.415995479f, -0.284932315f, 0.189688191f, 0.0282805655f, -0.332005769f, -0.236892849f, 0.281387091f, -0.0793539286f, -0.230249718f, -0.0220414773f, -0.032357581f, 0.0888265967f, 0.242056578f, -0.232845202f, 0.262464076f, 0.0695929155f, 0.112650491f, 0.02474753f, -0.102286138f, -0.365230024f, 0.00334064546f, -0.465321153f, 0.0980592221f, -0.237411961f, 0.268268108f, -0.0231806822f, -0.00958918221f, -0.106155515f, -0.201042324f, -0.023536263f, -0.065305762f, -0.197802529f, -0.0599017143f, -0.175950855f, 0.162007704f, -0.19941029f, -0.03537504f, 0.0207716972f, -0.142769784f, 0.0466195866f, -0.293106616f, 0.00567572191f, -0.206271663f, 0.00908365846f, 0.192069694f, 0.0483837277f, 0.256376892f, 0.153622612f, 0.0676745921f, -0.306336701f, -0.0325234197f, 0.0767254159f, -0.208804384f, 0.0442804582f, -0.0120750377f, 0.00983641669f, -0.0777444094f, -0.232862025f, 0.116599493f, -0.139109507f, -0.0549317524f, 0.0718075857f, -0.155531853f, -0.0604820475f, -0.0437580235f, -0.208341539f, -0.140333787f, 0.130152911f, -0.203644142f, -0.242624313f, -0.0416051894f, 0.110972188f, -0.0101880301f, -0.237167791f, -0.122090288f, 0.0816224292f, -0.401129246f, -0.0745854825f, -0.011511974f, -0.0202527288f, 0.0636661798f, -0.109883212f, -0.129964486f, -0.159061641f, -0.148831025f, -0.316804677f, -0.221261084f, 0.0728440359f, -0.143748865f, -0.20687522f, -0.116575137f, -0.197420523f, 0.229961798f, -0.0963950828f, 0.0141947959f, -0.0303156041f, -0.18788816f, 0.0792964846f, 0.0340224542f, 0.0263295807f, -0.043390315f, -0.0758574083f, 0.0928266197f, -0.068498604f, -0.0731376335f, -0.207426026f, -0.442283273f, -0.15772064f, -0.48071894f, -0.102863707f, -0.165234253f, -0.140607372f, 0.0127934292f, -0.273604423f, 0.0340224989f, -0.266295314f, -0.017627608f, 0.0676441789f, -0.144709751f, -0.06647899f, -0.359766334f, 0.0173832197f, -0.205555871f, -0.130315289f, 0.0547127649f, -0.326654732f, -0.422127157f, 0.0336927101f, -0.0901172236f, 0.199535996f, -0.0338151269f, 0.00749087101f, -0.140550584f, -0.101257421f, 0.182285294f, 0.0267025325f, 0.192260757f, 0.46993345f, 0.0101342034f, -0.122300029f, -0.144084647f, -0.0115423445f, -0.233154178f, -0.149796784f, -0.0463652574f, -0.138937429f, -0.419002384f, 0.322803289f, -0.0226387531f, 0.194354013f, -0.137186885f, 0.157129824f, -0.0507872924f, -0.217525303f, -0.207895815f, -0.107386097f, -0.149757043f, -0.296202838f, -0.14278686f, -0.196909457f, -0.165906981f, -0.332284868f, -0.0348240472f, 0.168144628f, 0.0283160936f, -0.130990833f, -0.30850926f, 0.00731379865f, -0.248489216f, 0.171482772f, -0.398324519f, -0.104587734f, 0.243276253f, 0.0031223197f, -0.110637069f, -0.476608008f, -0.154654488f, -0.0869760811f, 0.0803083479f, -0.0690277889f, -0.0323240682f, -0.0512452573f, -0.236667931f, -0.138829753f, -0.163221344f, -0.0941388682f, 0.00356298313f, -0.195082396f, -0.18889305f, -0.416395336f, 0.290903658f, -0.396462142f, 0.0777090043f, -0.0968738943f, 0.00575815514f, -0.150487557f, -0.356549919f, 0.103081271f, 0.483981162f, -0.188768446f, 0.239693895f, -0.501939952f, 0.131163448f, -0.0948209241f, 0.124053948f, 0.0138066178f, -0.0302452426f, 0.160025835f, -0.0817040056f, -0.13830854f, -0.0600762814f, -0.0667491257f, 0.0891504735f, -0.05405128f, 0.113723829f, -0.0110763153f, -0.143845364f, 0.199921489f, -0.220743299f, -0.133863524f, -0.141701579f, 0.301294744f, -0.260150224f, 0.0578830466f, 0.131822422f, -0.291531652f, -0.0561796911f, -0.165515319f, 0.213814214f, -0.382759094f, -0.352795422f, 0.0407724343f, -0.34085694f, -0.0853738859f, -0.0555041879f, -0.0362419225f, -0.0743694156f, 0.177678734f, 0.00709248986f, -0.129090324f, -0.379971087f, 0.235714912f, -0.0947427154f, -0.100094385f, -0.195611984f, 0.36062488f, 0.138786733f, -0.030271044f, 0.153508008f, 0.201785445f, 0.10866496f, 0.0940937325f, 0.194339961f, -0.0319253057f, -0.125752136f, 0.108457573f, -0.0252654273f, -0.142303944f, -0.0619326793f, -0.165021196f, -0.06593211f, -0.0299359746f, -0.00787995569f, 0.0542524382f, -0.108640552f, -0.000134378599f, -0.168973163f, -0.0594247803f, -0.0016613208f, -0.155270308f, 0.0543759242f, -0.0990854427f, 0.0762802735f, -0.0414565094f, 0.101047039f, 0.0787876844f, -0.122762747f, -0.0508777685f, 0.0572640449f, -0.158576131f, 0.042137377f, -0.116430566f, 0.0163310915f, -0.133104965f, -0.119301803f, 0.0275517516f, -0.121316284f, 0.0698212385f, 0.0468943194f, 0.0639377907f, -0.173286542f, -0.022716159f, -0.0995497853f, -0.0394557267f, -0.129080787f, 0.0421648733f, -0.0102560669f, -0.100022331f, -0.123793937f, 0.00434098439f, -0.110918172f, 0.0181692578f, -0.0514861532f, 0.00472761737f, -0.0812466443f, -0.0920716673f, -0.0506820902f, -0.169824585f, -0.0209678765f, -0.0919143558f, 0.013881308f, -0.0977438837f, 0.00148320943f, 0.0469413809f, -0.105748013f, 0.0742459521f, 0.00425979029f, -0.126658738f, 0.0164507385f, 0.0609886572f, 0.15688999f, -0.356402755f, 0.00813831575f, 0.0820381567f, 0.0452231169f, 0.0124138538f, 0.0646239743f, 0.0197007544f, 0.108348817f, -0.0367699713f, -0.333785057f, 0.274186879f, 0.0909919813f, -0.0592236482f, 0.288850516f, -0.106116414f, 0.0068723131f, 0.0736539364f, 0.0274114162f, -0.214760974f, -0.291902184f, -0.0322002545f, -0.0542108342f, -0.323131263f, 0.136303917f, -0.137996107f, -0.0744495094f, -0.113403268f, -0.180711985f, -0.178126052f, -0.0266743787f, -0.123711511f, -0.128581196f, -0.0778628215f, -0.0205703489f, -0.180280223f, -0.102462351f, -0.305628955f, -0.0645901784f, -0.113624908f, -0.00969297439f, -0.0286728814f, 0.0806097165f, -0.183692783f, -0.0526863113f, 0.0873414353f, 0.0250243694f, 0.0427496731f, -0.124882087f, 0.178178698f, 0.106234871f, -0.0201927591f, 0.0172912553f, -0.281539887f, -0.139698729f, -0.0310388245f, 0.0126958955f, -0.235645503f, -0.142657787f, 0.0186113901f, -0.419282705f, 0.0151517214f, -0.385898739f, -0.121901751f, 0.0105763786f, -0.276587218f, 0.282950073f, -0.0928287208f, 0.0209999625f, -0.133015037f, -0.120172791f, -0.12384516f, -0.22373338f, -0.214455396f, -0.109647729f, -0.274436384f, -0.163378537f, -0.420790464f, 0.00652075931f, -0.146030113f, 0.219170228f, -0.104497641f, 0.480045825f, 0.00747105572f, 0.033773426f, -0.102530047f, -0.00497590285f, -0.160488054f, 0.270754188f, -0.138824239f, 0.176184908f, -0.179590091f, 0.0760276169f, 0.118794672f, 0.151821405f, -0.0804878846f, -0.299168378f, -0.246224478f, -0.0836837515f, 0.0940718204f, -0.100503065f, -0.0981942862f, 0.0268187765f, -0.179878622f, -0.274660587f, -0.0491921119f, -0.0599578992f, 0.285034448f, -0.209407657f, -0.0249243136f, -0.116381124f, -0.409653038f, 0.199790448f, 0.0693664178f, -0.240963548f, -0.0992949158f, 0.0364560895f, 0.0157588087f, -0.164356068f, -0.230427369f, -0.199772045f, -0.0840392262f, 0.10586708f, -0.20305948f, -0.138472036f, 0.0590164773f, -0.108474784f, 0.0143775931f, -0.143449053f, -0.00500359479f, -0.0648227856f, -0.146418676f, 0.0991230905f, 0.00140529522f, -0.307849795f, -0.114797615f, -0.00430048862f, -0.0993165299f, -0.0104703689f, -0.0315979868f, -0.150052235f, -0.055432111f, 0.0118716843f, -0.182378858f, -0.155552924f, 0.0166456848f, -0.161270007f, 0.254730195f, -0.0086834887f, 0.057015352f, 0.00990194269f, -0.0994424373f, 0.116291419f, -0.0683449805f, -0.0628958941f, 0.0686174631f, -0.0659566671f, -0.160032123f, -0.185711771f, 0.0668605492f, 0.00784005318f, -0.225203067f, 0.0873725116f, -0.0745486319f, -0.129384488f, 0.0492177494f, -0.0176534299f, 0.0606880188f, -0.102045752f, -0.026083814f, -0.157720923f, -0.0241643097f, 0.0834974498f, -0.0976780131f, 0.107456774f, -0.0143063245f, -0.102023982f, -0.0218391623f, -0.0414632149f, 0.0349131636f, 0.120941736f, 0.0398271456f, -0.0162342284f, -0.0114543336f, -0.0178239513f, -0.152085826f, -0.153541967f, -0.0158809442f, -0.0877026543f, 0.105131999f, 0.115408555f, -0.127498224f, -0.208663762f, -0.298294663f, -0.196429387f, -0.059195973f, 0.0931704715f, -0.0102002081f, -0.312675267f, 0.0901603401f, -0.205139041f, -0.0586603321f, 0.150421739f, 0.0902614966f, -0.421010345f, 0.0844127387f, 0.0210491959f, -0.0681803674f, 0.227743372f, -0.00516588194f, -0.19906342f, 0.0645200312f, -0.00291614095f, -0.148458645f, -0.0414894149f, -0.0118676312f, -0.0542190596f, 0.258700371f, 0.192499354f, 0.0453343354f, -0.014117334f, 0.0135624195f, -0.0588543788f, 0.0329664499f, -0.349461764f, 0.180487186f, -0.104945362f, -0.051510524f, -0.00784940738f, 0.128228024f, 0.0446657874f, 0.152746916f, -0.0926372632f, -0.155729994f, -0.300377488f, -0.0208649933f, -0.0942783058f, -0.0603073724f, -0.256663948f, -0.439230412f, 0.0813438296f, -0.0140586086f, 0.0598146133f, -0.0488996282f, 0.0924693048f, -0.201350704f, 0.135635585f, 0.247680396f, -0.225264788f, 0.063748166f, -0.750369072f, -0.127796054f, -0.057545457f, -0.341832131f, -0.156273425f, 0.152693138f, -0.0241183937f, -0.103012986f, -0.264128387f, 0.013868751f, 0.0949987397f, -0.0524310954f, 0.051887501f, -0.306926072f, -0.0524610318f, 0.0396932811f, 0.154720426f, 0.0416837074f, 0.10846699f, -0.0814705268f, -0.297200412f, 0.201164171f, -0.0740340278f, -0.325331181f, -0.107652895f, -0.066950582f, -0.0932253599f, 0.0255325157f, -0.0845870823f, -0.00310844579f, -0.190640509f, 0.16618973f, -0.166797698f, 0.0516864806f, 0.0806874633f, -0.216797948f, -0.225869313f, -0.163706988f, -0.0288219005f, -0.0974783748f, -0.0401301235f, 0.120089211f, -0.110863104f, -0.0628576428f, -0.122230835f, -0.0869890675f, -0.0607422329f, -0.209774852f, 0.230721518f, -0.27229929f, 0.165922508f, -0.197497353f, -0.0332814865f, 0.148176789f, -0.363348544f, 0.161967531f, 0.129741117f, -0.187558979f, -0.0452896953f, 0.0916418284f, 0.261098742f, -0.0563060977f, -0.118109465f, -0.156465247f, -0.179860681f, -0.0512378998f, -0.13771379f, -0.0109688779f, 0.291865051f, -0.148962051f, -0.00250454457f, -0.417706788f, 0.309667945f, 0.196357846f, 0.00781936944f, 0.0991078094f, -0.173829466f, -0.0645584762f, -0.14253737f, 0.181694612f, -0.0747000799f, 0.0398971513f, 0.115125902f, -0.356222272f, -0.22132127f, 0.0570427403f, -0.192324907f, -0.172385037f, -0.0412577055f, -0.0962568447f, 0.0447920859f, -0.311748892f, -0.224812478f, -0.138635695f, -0.231955662f, -0.0592184253f, 0.178175017f, 0.0173377171f, -0.387114227f, 0.0248908512f, -0.0901877806f, -0.0923916027f, -0.0574199446f, -0.13833423f, -0.0646093413f, -0.165203318f, -0.367911875f, 0.115973316f, 0.123962298f, -0.123274349f, 0.24592942f, -0.279252023f, -0.166955784f, -0.409790009f, -0.141610101f, -0.168753654f, -0.150874645f, -0.165876687f, -0.243301615f, 0.198429585f, -0.055177398f, -0.195257589f, 0.0805730745f, 0.106548756f, -0.0703688711f, 0.236884549f, 0.0864484385f, -0.149668992f, -0.205470651f, -0.0974723995f, -0.0252312999f, -0.079105705f, -0.0126859769f, -0.278140068f, -0.121292807f, 0.0520875379f, 0.195838571f, 0.118858151f, -0.0987544358f, -0.149811506f, -0.0926243737f, 0.0459273122f, -0.0927635208f, -0.184893608f, -0.011223902f, -0.222239345f, -0.0221610293f, 0.162034497f, -0.166158915f, 0.00811870489f, -0.166328445f, -0.0261055883f, 0.170723453f, -0.0381947942f, 0.0133588202f, -0.0811670944f, -0.336547703f, -0.0191379525f, -0.0230272543f, -0.111746386f, -0.0461239666f, 0.00844402518f, 0.0237396825f, -0.112667538f, 0.0568604283f, 0.07974457f, -0.0371492356f, -0.00526422309f, -0.00247081765f, -0.0798926875f, -0.0350787528f, 0.0615598038f, 0.0347037651f, 0.162740633f, 0.0951194763f, -0.104578719f, -0.336936951f, 0.0295909811f, -0.392293066f, -0.156572282f, -0.194393396f, 0.039490398f, -0.0208201017f, -0.0676262081f, 0.042010054f, -0.154139876f, 0.0204542484f, 0.245110899f, 0.260189563f, -0.184509724f, -0.0602143183f, 0.0607406832f, -0.0277757831f, 0.0768299252f, 0.316476315f, -0.0127166379f, 0.0411057435f, 0.0257599652f, -0.0508694276f, 0.0520934649f, -0.0526773147f, 0.0811055899f, -0.00484370301f, -0.0778256804f, -0.16342853f, 0.0481990576f, -0.0806081221f, 0.077845484f, -0.102138154f, -0.140725449f, -0.0834825635f, -0.139189169f, -0.015259726f, -0.0555675253f, -0.0568912067f, 0.043831706f, 0.0676086769f, -0.116242379f, -0.145797566f, 0.0278554875f, -0.127884269f, -0.0290032681f, -0.0535864718f, -0.0102530988f, -0.113819234f, -0.0375777483f, -0.131226584f, -0.123114884f, -0.110462047f, 0.0206214469f, 0.0534075834f, -0.0394120403f, 0.0114419498f, 0.0532259606f, 0.0653788671f, -0.0744636059f, -0.159940451f, -0.00398865296f, 0.0557221957f, -0.104620427f, -0.148163661f, -0.0372437611f, 0.0656029582f, -0.170282573f, -0.0982558876f, -0.0500710681f, -0.140475944f, -0.143552482f, 0.0651212111f, 0.0587273836f, -0.149277911f, -0.0634544343f, -0.145003542f, 0.0190285277f, -0.130525231f, -0.101540476f, -0.121767543f, -0.0268678125f, 0.0425962321f, -0.269756079f, -0.118521444f, 0.0676925257f, -0.0463142134f, 0.0890724361f, -0.202111408f, -0.00750947744f, -0.250950187f, 0.0761012658f, -0.200146601f, 0.0838388503f, -0.025041094f, 0.057543911f, 0.127662152f, -0.00141950091f, 0.163021415f, -0.259316653f, -0.0387579426f, -0.0288974158f, -0.102141872f, -0.277126431f, 0.0734498724f, -0.0269593857f, 0.0131562147f, 0.0169281363f, -0.0617207028f, 0.0335470103f, -0.0519986078f, -0.176161364f, -0.14804177f, 0.0164237581f, -0.0925215632f, -0.0240615364f, 0.0425018184f, 0.0358435325f, -0.00301688351f, 0.0644420385f, -0.0839215443f, -0.0824149475f, -0.165363342f, -0.0708590969f, -0.106131814f, -0.311305881f, -0.189522803f, -0.131247118f, -0.34716475f, -0.0355463177f, -0.0164026413f, -0.222987309f, -0.191652671f, 0.00180955313f, 0.0788652524f, 0.0529458039f, 0.0119145643f, 0.0862810314f, -0.133571804f, -0.0849172398f, -0.289434582f, -0.196691409f, 0.0898961425f, -0.0752013996f, 0.102916904f, -0.179597363f, 0.11102581f, 0.201734468f, -0.275619566f, 0.188388169f, 0.038615562f, 0.126110986f, -0.0874078348f, -0.190154493f, -0.29758814f, 0.0541049391f, 0.0565136448f, -0.358388484f, 0.320199102f, -0.295322508f, -0.192357197f, 0.00379077764f, -0.191703096f, -0.0642893836f, 0.0941341668f, -0.319017768f, -0.254336238f, 0.251641124f, -0.183723137f, -0.0518868938f, -0.0972302184f, 0.247149274f, -0.275315642f, 0.0250736978f, -0.0980720297f, 0.0106135355f, -0.214372113f, -0.100676835f, -0.454569191f, -0.0760523081f, 0.0549517684f, 0.166272059f, 0.014592791f, 0.0204002485f, -0.212118298f, -0.314287484f, 0.15772903f, -0.0262553506f, -0.0920619443f, 0.0228051003f, -0.197319165f, 0.102805667f, -0.0795806423f, -0.118050382f, 0.200387418f, -0.214321688f, -0.0400505811f, -0.236263424f, 0.0835278109f, 0.128367901f, 0.110398978f, 0.176571041f, -0.174829781f, 0.233274579f, 0.119711958f, 0.0851152167f, 0.107083812f, -0.120002255f, 0.189978212f, 0.090849638f, 0.105017416f, -0.145296261f, 0.070217073f, 0.0554395095f, -0.091808863f, -0.0579222478f, -0.0631338581f, -0.242213488f, -0.151801646f, -0.0481905229f, -0.0871630982f, 0.0974336565f, 0.0721837804f, -0.0922705531f, 0.0501351617f, -0.164584115f, -0.00510172965f, -0.0645100698f, -0.196240604f, 0.00878625736f, 0.0588272177f, -0.0902003199f, -0.0630801469f, 0.00429159356f, 0.0792077556f, -0.071811609f, -0.0752574056f, -0.0671243072f, -0.0519228987f, -0.119662322f, -0.036801286f, -0.19257158f, -0.0569496006f, -0.135037929f, 0.0370942093f, -0.129939556f, -0.0138624841f, -0.0747649148f, 0.0852606148f, 0.0567767099f, -0.127273351f, 0.075203523f, -0.188725799f, -0.0834394395f, 0.115461938f, 0.0517767109f, -0.124025613f, -0.0864801705f, 0.00315558701f, 0.058128655f, -0.0799439922f, -0.0924309939f, -0.121458992f, 0.0195279121f, -0.0711734071f, 0.00167890987f, -0.111061029f, -0.169493675f, -0.0847238451f, -0.125676021f, -0.104080804f, 0.0728350803f, -0.162105083f, -0.0623942576f, -0.135376781f, 0.0119968578f, -0.14891988f, -0.21565184f, -0.900726974f, -0.0527078584f, 0.183677167f, 0.239425972f, -0.182189018f, -0.388132781f, -0.0430073999f, 0.0450917035f, -0.513664484f, 0.00935603771f, -0.221804664f, -0.441773683f, 0.0918503255f, -0.152093083f, 0.0805915147f, 0.0977928266f, 0.139580533f, 0.101031676f, -0.018591797f, -0.359560132f, -0.0347904116f, -0.213015929f, -0.0401137471f, -0.140896901f, 0.358222514f, -0.152929172f, 0.107935019f, -0.0768927559f, 0.179363549f, 0.0526465736f, -0.0553171448f, -0.134505734f, -0.201744676f, -0.383653969f, 0.0335468948f, -0.131200299f, -0.223367929f, 0.00603629323f, -0.0363886729f, -0.0204269122f, -0.113725066f, 0.0689934269f, -0.417576373f, 0.24359332f, 0.0450730287f, -0.0650770962f, 0.263866931f, 0.109372213f, 0.10570237f, -0.741370678f, -0.282907188f, -0.0230164342f, -0.188277557f, 0.0201449767f, -0.156811833f, 0.0322628915f, -0.206460074f, -0.0685514733f, 0.326671511f, -0.0151197845f, -0.0777061805f, -0.12894842f, 0.104073852f, 0.0383872949f, 0.0832869187f, -0.0265027061f, -0.131568983f, -0.0990563855f, -0.120925091f, -0.0235990062f, 0.200424254f, 0.0539671369f, 0.185510561f, 0.109113425f, -0.0188614298f, 0.0185448881f, 0.136873975f, -0.115340106f, -0.065487273f, 0.012226888f, -0.199798077f, -0.15701443f, -0.13708137f, -0.26820761f, -0.093051292f, 0.105045125f, -0.0701074153f, 8.75365222e-05f, -0.0938014314f, -0.00126925891f, -0.0477492362f, -0.0839067027f, -0.169120535f, 0.105069377f, -0.060576465f, -0.166919723f, -0.178352714f, -0.22276932f, -0.0296089817f, 0.00410191063f, -0.00475313468f, 0.0239578076f, -0.136102483f, -0.102947563f, -0.0201258734f, -0.101699829f, 0.068197228f, -0.00568159902f, -0.0704175979f, -0.0023345931f, -0.182208121f, -0.0362956375f, -0.0934156775f, 0.0818857327f, 0.134753913f, -0.156277969f, 0.087401934f, -0.181974977f, 0.0486877561f, 0.0244487934f, 0.0615179278f, -0.1187177f, 0.0182601959f, -0.034115959f, -0.0184919722f, 0.189355657f, -0.160814062f, -0.230089515f, 0.109805763f, -0.199746415f, 0.29017505f, 0.13920173f, -0.0852882043f, -0.0588233434f, -0.064809069f, -0.0137168653f, -0.032509204f, 0.150486827f, -0.100963362f, -0.0908411741f, -0.257962763f, -0.259068429f, 0.184903115f, -0.0635081232f, 0.0387177579f, -0.0293110497f, 0.311584145f, -0.302406043f, -0.0423624367f, 0.00567669095f, -0.120458096f, -0.211426035f, 0.314602882f, -0.0815956295f, 0.23189801f, -0.0154564278f, -0.170655698f, 0.0803460553f, -0.226612076f, -0.156949967f, -0.0188418049f, -0.0505151749f, 0.0731938407f, 0.014816083f, -0.00738458661f, -0.217855245f, -0.0611041747f, 0.00189127319f, -0.180736482f, -0.0385519192f, -0.233555928f, 0.0151364962f, -0.0814452544f, -0.101209447f, -0.0599544346f, 0.0121896332f, 0.103951775f, 0.1646671f, -0.300044596f, -0.0206945278f, -0.0195460953f, -0.422284067f, -0.0924631208f, -0.0236563422f, 0.012722807f, -0.0453976579f, 0.00508171599f, -0.145988092f, -0.141555458f, -0.172753617f, 0.104237452f, -0.00411172025f, 0.0396153592f, -0.179692373f, 0.0286269169f, -0.201919928f, -0.00275203492f, -0.096221f, -0.219041064f, -0.0258711763f, -0.218141407f, -0.0556885526f, -0.0737710297f, -0.111766368f, 0.0344825238f, -0.0956488401f, 0.0250630118f, -0.155954868f, 0.0165593121f, 0.0799268633f, -0.00840082299f, 0.0158717576f, -0.0503166057f, 0.0585374124f, -0.0156294759f, -0.101950005f, 0.0313652121f, -0.052335903f, -0.0995810851f, 8.43856981e-07f, -0.037693236f, -0.309936285f, -0.150716439f, -0.0607422255f, -0.0857959166f, -0.0815500692f, 0.0689108744f, -0.244564131f, -0.155519262f, -0.191450477f, -0.0556251034f, -0.04758453f, -0.154098719f, 0.0402339958f, -0.229836181f, 0.0228525773f, 0.0461298637f, -0.116054252f, -0.0607202053f, -0.0143310428f, 0.0144628044f, -0.240464568f, -0.0721963122f, 0.118075669f, 0.0500314906f, -0.0273517203f, -0.0741389766f, -0.00860041939f, -0.0260873698f, -0.156245366f, -0.193127155f, -0.00646074722f, 0.0159518458f, 0.0814817548f, -0.252376676f, 0.084039405f, -0.129073143f, -0.0108865323f, 0.109478824f, 0.0512651131f, -0.220328242f, -0.115927592f, -0.311919868f, 0.0471269898f, -0.0946854129f, -0.221827924f, -0.164297938f, -0.163712472f, -0.0348242112f, 0.0219388977f, 0.020135235f, -0.152625009f, 0.160372436f, 0.00594582269f, 0.0345269665f, 0.175728083f, -0.143941864f, -0.163417578f, -0.0245718397f, 0.104651578f, -0.100360215f, -0.0358146131f, -0.505072713f, 0.151291847f, 0.000872183009f, 0.0417637639f, 0.0909941122f, 0.0822299197f, 0.0675788149f, 0.00431945873f, -0.102321327f, -0.21728611f, -0.101724006f, -0.101294637f, 0.020019237f, 0.151311532f, -0.173631638f, -0.0114058489f, -0.405857682f, -0.231997713f, 0.121876314f, -0.137421697f, -0.0510507487f, -0.274807066f, -0.122344807f, -0.134220988f, 0.108963482f, 0.094661437f, -0.181467459f, 0.475087017f, 0.0959700271f, -0.0680150464f, 0.0343298055f, -0.0420263745f, -0.359814644f, 0.215343714f, 0.233557731f, -0.116543658f, -0.11660374f, -0.0074492367f, -0.0213243533f, -0.0581429079f, -0.143493265f, 0.0195991304f, -0.0341353975f, 0.0164693985f, -0.0909949467f, -0.0127390102f, -0.0418066718f, -0.0978033021f, -0.089988105f, 0.0692399442f, -0.101791739f, 0.00648255041f, -0.0516471453f, -0.0531559028f, 0.0283005647f, -0.0370292999f, -0.185000539f, -0.00382745382f, -0.0967550799f, 0.0434534326f, -0.0968876332f, 0.0526706874f, -0.00410961173f, -0.0100998636f, 0.0106086163f, -0.0518137291f, -0.127449483f, -0.0414525755f, 0.0301175024f, -0.0616430156f, 0.0697398633f, -0.0563347228f, -0.0904490426f, -0.109360151f, 0.0169466399f, -0.106540799f, -0.0256555453f, -0.157790035f, -0.00831337459f, -0.191314593f, 0.000210068989f, 0.0692788512f, -0.0326898769f, -0.101019427f, -0.164805248f, -0.0419086255f, -0.109103538f, 0.0285613872f, -0.13058202f, 0.0219434164f, 0.0645989552f, -0.0763506591f, -0.122991048f, -0.0257397797f, -0.124957137f, 0.0477012657f, -0.127287969f, -0.0378900431f, 0.0233659651f, 0.0311182085f, 0.0220770948f, 0.0530398004f, 0.131337062f, -0.362564206f, 0.281842411f, 0.0871827751f, -0.101002194f, -0.159595564f, -0.0256054252f, -0.229561523f, -0.138311505f, 0.162939832f, -0.103444554f, 0.057579428f, -0.356547117f, -0.352460086f, 0.203573316f, -0.12882024f, 0.0790012032f, 0.00257627713f, 0.215261489f, -0.226705521f, 0.0500775762f, -0.182157323f, 0.0972545296f, -0.253992975f, 0.174471736f, -0.210489407f, 0.220219091f, 0.0179757848f, 0.0459498242f, 0.20363313f, -0.127760306f, 0.0559264459f, -0.2513372f, -0.3235704f, 0.120789349f, -0.0542669557f, -0.0999013036f, -0.161961481f, 0.0953683108f, 0.0448149741f, -0.215506822f, -0.0795137212f, -0.196479902f, 0.0660257116f, -0.340718329f, -0.246451497f, -0.058263965f, -0.276055396f, 0.0767326131f, 0.167649701f, 0.18260856f, 0.023685839f, 0.0722139999f, -0.0767742917f, -0.0167151373f, -0.107938737f, 0.00239988789f, -0.0298957638f, 0.230843425f, -0.0604697429f, -0.0291562136f, -0.139759868f, -0.0929262266f, 0.0376296043f, 0.0657164454f, 0.0377922319f, 0.201196462f, -0.290898681f, -0.208319902f, -0.37425074f, -0.529749095f, -0.143205002f, -0.481759459f, -0.224555165f, -0.142867476f, -0.000608454517f, -0.31831497f, 0.0817845911f, -0.10035269f, -0.441263318f, -0.0664546639f, -0.129350469f, -0.0635169372f, -0.0772076249f, -0.0759077519f, 0.145078123f, -0.354128897f, -0.0520444848f, -0.199166164f, -0.0826737285f, -0.378227472f, -0.0729911774f, -0.244458571f, -0.0388029367f, -0.197736934f, 0.266734004f, -0.408536226f, 0.106503285f, -0.0128001478f, -0.0160405599f, -0.200004771f, 0.0342311487f, -0.335568964f, 0.18693842f, -0.139240474f, 0.10224054f, 0.130642518f, -0.104378328f, -0.0300946441f, -0.0671619028f, -0.109647848f, -0.226952687f, -0.237581298f, -0.811918557f, 0.0484009236f, -0.203534424f, 0.025597278f, 0.361661077f, 0.370214939f, -0.307173312f, -0.132825598f, -0.0831215531f, -0.575854421f, 0.256931514f, 0.023517875f, -0.284485877f, -0.00196170784f, -0.0117234671f, 0.180223927f, -0.115700379f, -0.329089791f, -0.241894528f, 0.163484812f, -0.0457505584f, 0.0762254f, -0.395391911f, 0.113662422f, -0.0257084612f, -0.378053814f, -0.0241190009f, 0.257005244f, -0.214397788f, 0.021444872f, -0.281719387f, -0.368775159f, -0.167740673f, 0.223937809f, 0.111162737f, -0.0884792656f, -0.0602487586f, 0.120635174f, -0.16452536f, 0.013723989f, -0.149010286f, -0.523219526f, 0.00905821379f, -0.0479393341f, -0.00984459091f, -0.0125091458f, -0.19835344f, -0.10172347f, -0.335881978f, -0.341940016f, -0.158645168f, -0.274111301f, -0.187655434f, -0.282046944f, 0.105329528f, -0.00855638366f, -0.497956663f, -0.0472730882f, -0.355015457f, 0.000527666532f, -0.451003909f, -0.136137411f, -0.236372188f, -0.230047286f, 0.257218629f, 0.0455389284f, 0.165202439f, -0.599168181f, -0.258669585f, 0.301130563f, -0.0878470242f, -0.113759108f, -0.173764959f, -0.0329390392f, -0.165156797f, 0.223091826f, 0.0220133681f, -0.160731256f, 0.0751908496f, -0.0374358147f, -0.448762f, 0.116998918f, 0.170235798f, -0.34962669f, -0.261021435f, -0.00924089178f, 0.00167408714f, 0.021847846f, -0.0451063737f, -0.0736651123f, 0.161084503f, 0.0242509041f, -0.0782248527f, -0.0332627818f, -0.0254734512f, 0.18095313f, -0.0177451987f, 0.0456927307f, 0.0165521316f, -0.10354314f, -0.0496777035f, -0.136469766f, -0.0930676609f, 0.0229886416f, 0.040287368f, 0.242033929f, -0.0517150536f, -0.0244179294f, 0.00891439989f, 0.0356626883f, -0.0857929885f, -0.202166319f, -0.040330559f, -0.152962059f, -0.147435829f, 0.00807325635f, -0.0697186962f, 0.0854568183f, -0.110073298f, -0.0563728325f, -0.239630863f, -0.340046644f, -0.035933122f, 0.0870822966f, -0.101752236f, 0.0358979627f, -0.0644341633f, 0.070858039f, 0.0131234853f, 0.126427248f, 0.0786626339f, 0.00452227751f, -0.0241058171f, -0.168485299f, -0.0800655559f, 0.0468992442f, 0.00616589701f, 0.00767466379f, -0.0298018306f, -0.054086294f, -0.135700658f, -0.118390784f, 0.206234381f, -0.117937364f, -0.289227903f, -0.0113820359f, 0.058368396f, 0.0781976208f, -0.217200845f, -0.0756654143f, 0.204537287f, -0.0232444499f, -0.0112749999f, -0.15407598f, -0.10324046f, -0.14962779f, -0.142491221f, 0.0523377359f, -0.0441695899f, -0.0946635082f, 0.149307162f, 0.197080925f, -0.0631602034f, -0.108751953f, 0.0167518333f, -0.135442555f, 0.0229175445f, -0.0481357686f, -0.181520715f, -0.15857245f, 0.0256558694f, 0.0377596952f, -0.0708017349f, -0.0255827326f, -0.152316049f, -0.0731101036f, -0.132457882f, -0.0543776043f, 0.0457027555f, -0.0729358643f, 0.0473058261f, -0.142065883f, -0.133857548f, -0.165607303f, -0.162273571f, -0.0312516764f, -0.0199161842f, -0.02720646f, -0.205482394f, -0.176254019f, 0.0326214992f, -0.135126874f, -0.0554788932f, 0.0349078812f, 0.0602640286f, -0.0973122716f, -0.184665084f, -0.143302158f, -0.0362905711f, 0.0869384483f, -0.0389387906f, 0.0697042793f, -0.199660569f, -0.135523945f, 0.119022392f, -0.0191965699f, 0.0264661163f, -0.270720214f, -0.339852482f, -0.134864315f, 0.140178144f, -0.149538174f, -0.220463261f, -0.32175222f, 0.0239943974f, -0.277382731f, 0.0208225567f, -0.146127954f, 0.130145743f, -0.308536738f, 0.0439427048f, 0.134933695f, 0.0320953466f, 0.167143881f, 0.0279839821f, -0.142119646f, -0.156585589f, 0.152649805f, -0.241548494f, -0.209737092f, -0.166753694f, -0.112598501f, 0.156077817f, 0.205144331f, -0.122363754f, 0.0905392542f, -0.160173178f, 0.131752282f, -0.163728729f, -0.366472483f, 0.131143853f, -0.0294318553f, -0.22577554f, 0.103389159f, 0.154551283f, 0.222928002f, -0.0402692035f, -0.0318246149f, -0.303293377f, -0.385292947f, -0.0522794165f, 0.118572064f, 0.0263710208f, -0.126875371f, -0.37082994f, 0.191284031f, 0.0285297167f, -0.0817852095f, -0.104036376f, -0.0553527921f, -0.0895856321f, 0.16717115f, 0.195513502f, -0.175589204f, -0.0213132743f, -0.243832022f, -0.0756992176f, 0.0287538376f, 0.105034776f, -0.035095945f, 0.132693589f, -0.131267965f, 0.123901516f, 0.252073973f, 0.0280091856f, 0.00373853976f, -0.0527339838f, -0.00448835501f, -0.0116134975f, -0.085505493f, 0.185822755f, -0.142627597f, -0.00713296654f, -0.105021149f, -0.0795282722f, 0.111349642f, -0.152762741f, -0.08217372f, 0.0369857661f, 0.104000464f, -0.0949094519f, 0.140066296f, 0.0964566395f, -0.0497758016f, -0.0604061335f, 0.181736067f, -0.00544732576f, 0.259029269f, 0.0996317342f, 0.310200244f, 0.0956986025f, 0.0103981933f, -0.0725373179f, 0.173576623f, -0.176807597f, -0.124190949f, 0.130794391f, -0.0186154991f, -0.271380901f, -0.0958040506f, -0.0383431576f, -0.127340212f, 0.0171998944f, -0.414792776f, 0.0354632959f, 0.0623310171f, 0.0163851213f, 0.158584237f, -0.446584016f, -0.0528342389f, -0.0299466085f, 0.012498294f, -0.0471019708f, 0.170529753f, 0.0460241698f, -0.180664182f, -0.124347992f, 0.105678111f, 0.00787453074f, 0.185044155f, -0.078608647f, -0.140597701f, 0.19580251f, 0.155774578f, 0.00510336552f, -0.405135632f, -0.122015625f, -0.237096533f, 0.0533866994f, -0.135833099f, -0.292769074f, -0.203430384f, -0.044233907f, -0.468846768f, -0.25122264f, 0.180932313f, -0.0855757445f, 0.134221703f, -0.0622232594f, 0.0879471079f, 0.191855296f, 0.0567740276f, 0.000229109253f, 0.148749217f, -0.0122566959f, -0.122132033f, -0.333374441f, -0.221943244f, 0.0507032908f, -0.26477316f, 0.173321828f, 0.0650432855f, -0.083250992f, -0.102727003f, -0.13303189f, 0.165259704f, -0.204867706f, -0.42259571f, 0.0079843821f, -0.0311250221f, -0.0409803838f, -0.0770861804f, 0.0720132142f, 0.149952114f, 0.0960844606f, 0.18424429f, -0.134969383f, -0.432537258f, 0.156485468f, -0.0183308069f, -0.1403521f, -0.152666733f, -0.352653176f, 0.154771537f, -0.10389138f, -0.220152587f, -0.153236091f, -0.0492518023f, 0.154722795f, 0.251457095f, 0.182949513f, -0.197268963f, 0.151499301f, -0.355320245f, -0.0829950348f, 0.121001877f, -0.0546125658f, -0.00383377238f, -0.167689279f, 0.0265132114f, -0.0341546163f, 0.0398245268f, -0.120219693f, 0.304946095f, -0.0768683404f, -0.0907957107f, -0.108087242f, 0.0580876619f, -0.0966236144f, -0.108171768f, 0.0419227667f, -0.146991536f, 0.0976004675f, 0.0129407253f, -0.279701889f, 0.0769511834f, 0.137241513f, 0.00571254268f, 0.0509347953f, 0.0192840807f, 0.0414783284f, -0.101839736f, -0.193165466f, -0.0368425697f, -0.0831304491f, -0.288778275f, -0.0321094617f, -0.0718936846f, 0.0320712961f, -0.12181814f, 0.226909205f, -0.0934986323f, 0.112985745f, 0.0224077683f, -0.045381885f, -0.178671986f, 0.0367793292f, -0.145362884f, 0.172014967f, -0.0091989832f, 0.000509282458f, 0.0518717952f, -0.0825069919f, 0.0240656789f, -0.147237226f, -0.109438524f, -0.0312846676f, 0.0891408175f, -0.0845086053f, 0.101502053f, 0.0266240984f, -0.0426843204f, 0.00560933538f, 0.0718785897f, 0.00503719831f, -0.0857255608f, -0.196291223f, -0.255388141f, 0.0284272004f, -0.117483176f, 0.156018749f, -0.204621911f, 0.0530214831f, -0.22937341f, 0.138514459f, -0.0851076245f, 0.0787607431f, -0.0263009332f, -0.112081617f, 0.142314881f, -0.137056261f, -0.08652547f, -0.113142081f, 0.156990752f, 0.0530639365f, 0.0994225517f, 0.0889243558f, -0.094041191f, -0.0274565984f, -0.0938625783f, -0.200778171f, -0.172055885f, 0.166433886f, 0.0774243772f, 0.217221141f, -0.296335816f, 0.0396374203f, 0.00139634358f, -0.0287597161f, -0.0303539429f, 0.0893122032f, -0.233425006f, 0.0569502935f, 0.186656326f, 0.0840474218f, -0.0590174571f, 0.0462381318f, -0.187948808f, -0.158339396f, 0.00855396502f, 0.0928610936f, 0.0906653106f, 0.268905222f, -0.299637526f, 0.137988538f, -0.793729305f, -0.0608169623f, 0.179552913f, 0.0579730608f, -0.15947634f, -0.380166382f, -0.188442126f, -0.216571644f, -0.0416616239f, 0.144297525f, -0.101075433f, 0.151811361f, -0.0126968678f, -0.0648305863f, 0.120481402f, 0.0963784009f, 0.147769928f, 0.140974879f, 0.2900787f, 0.315914571f, -0.347639352f, 0.194915608f, -0.0780163258f, -0.450065136f, 0.27370134f, -0.79838866f, -0.319932967f, 0.069346413f, 0.400611609f, -0.314059049f, -0.347706228f, -0.26399529f, 0.286280662f, 0.410281479f, 0.311981469f, -0.26244694f, 0.145646378f, -0.173788875f, 0.083381623f, -0.0574533232f, 0.345320851f, 0.116934225f, 0.238145471f, -0.417083532f, 0.291448414f, -0.0485623665f, 0.0293944813f, -0.0318947248f, 0.153328195f, -0.108395107f, 0.0708200559f, -0.0780994818f, -0.0230979547f, -0.0176149029f, -0.575773776f, 0.223064944f, 0.107647032f, -0.23070319f, 0.102654599f, 0.00158110156f, -0.0975984335f, 0.20216772f, 0.170671046f, -0.00650431961f, -0.36462608f, -0.0930244848f, -0.0720825791f, -0.129004687f, -0.0598226003f, -0.412138522f, 0.220719591f, 0.124294147f, 0.368480623f, -0.227562547f, -0.217763498f, -0.343522996f, -0.0241768416f, 0.195131853f, -0.227278933f, 0.106265798f, -0.47857675f, -0.0873546675f, -0.0904719383f
};

static const float B2[64] = {
    -0.107055776f, 0.0165212527f, 0.00542763248f, 0.0809379742f, -0.244443357f, 0.1067724f, -0.110410407f, 0.0616942346f, 0.0998519808f, -0.099354662f, 0.0905315429f, -0.0173529964f, 0.110422492f, -0.0110884625f, 0.0499396734f, 0.102816492f, -0.139380097f, 0.031510178f, 0.141951174f, -0.0840403363f, 0.116285719f, 0.184447855f, -0.0215089396f, 0.174309134f, 0.0475203991f, -0.118367627f, -0.0424348861f, 0.034117166f, 0.0414584391f, 0.0909130797f, -0.0908486247f, -0.0605475865f, 0.00758260442f, 0.0709119961f, -0.0120972078f, -0.0161693171f, -0.0856231377f, -0.00139136263f, -0.140820429f, 0.137237474f, -0.0359809548f, -0.24499929f, -0.112466864f, 0.0378052704f, -0.132488549f, 0.193218365f, -0.18769531f, -0.182485014f, -0.063518934f, 0.0713621229f, -0.0782258287f, 0.1011898f, -0.0190296099f, 0.0340706222f, 0.100266919f, 0.0305739474f, 0.0448492393f, -0.103499174f, 0.00628238544f, 0.0076774992f, 0.15282613f, -0.0978608578f, -0.0923033878f, 0.005156531f
};

static const float W3[128] = {
    0.0877910852f, 0.0673187748f, -0.186708257f, -0.0889089331f, -0.127312005f, 0.0953696594f, -0.120858893f, 0.232746586f, -0.162222534f, 0.0967294276f, 0.142378449f, 0.0215603355f, 0.228857875f, -0.140038863f, 0.0564707443f, -0.240386486f, 0.0508340783f, 0.165385738f, 0.0761439577f, -0.00806735829f, 0.121567748f, 0.106758073f, 0.166800618f, 0.106854387f, -0.0337881632f, -0.167167321f, -0.10156548f, 0.0742310733f, 0.0732242987f, -0.185730159f, -0.0291680712f, 0.0995529667f, 0.0758991167f, -0.192831904f, -0.114491448f, -0.0529734753f, 0.121555641f, -0.0690335333f, -0.079224728f, 0.261861414f, 0.0080198897f, -0.00132042752f, 0.0175882f, 0.0477227606f, -0.064261876f, 0.137382641f, -0.0930561796f, 0.0595418625f, 0.0758502707f, 0.0210207961f, -0.0879810229f, 0.0612868443f, -0.0113685876f, 0.0858979002f, -0.0159233082f, 0.468163043f, 0.0592290238f, 0.044905033f, 0.220938355f, -0.0976640508f, 0.150750443f, 0.156089664f, -0.143047243f, 0.299271315f, 0.100983284f, -0.0477694385f, -0.0625230744f, 0.0284652766f, 0.0239880625f, -0.0768587068f, 0.0157117061f, 0.0790638104f, -0.0148846069f, 0.0401971266f, -0.00159766688f, -0.116386309f, 0.0491139852f, -0.161428824f, 0.181334347f, 0.0838902965f, -0.0102721415f, 0.219187915f, 0.0380006917f, 0.15871793f, -0.0386378467f, -0.171186075f, 0.06913656f, 0.0585780777f, -0.0682913214f, 0.0744787753f, 0.0700114369f, 0.176280633f, 0.0753052384f, 0.0443488844f, 0.179274946f, -0.0857050791f, -0.0149843851f, 0.0595464371f, 0.155303821f, 0.0852918103f, -0.0953232571f, -0.205701798f, 0.0325983316f, -0.0460333936f, -0.0283580795f, -0.148633897f, 0.110700272f, 0.0216125473f, 0.0326181054f, 0.142591313f, -0.0671933219f, -0.299978733f, -0.0114565957f, -0.162998855f, 0.132596537f, 0.240601361f, 0.00179683114f, -0.210540012f, 0.300399035f, 0.0257320981f, -0.019278653f, -0.0120381583f, 0.0152679551f, -0.122641072f, 0.0213170853f, -0.00252846186f, 0.109202407f, -0.0938818231f
};

static const float B3[2] = {
    -0.0220801421f, -0.0821649358f
};
